,feature_0,feature_1,feature_2,feature_3,feature_4,feature_5,feature_6,feature_7,feature_8,feature_9,feature_10,feature_11,feature_12,feature_13,feature_14,feature_15,feature_16,feature_17,feature_18,feature_19,class
TCGA-2F-A9KR,-0.38444605,0.20491154,-0.14898112,0.3312973,0.15571237,0.8762137,0.88116467,-0.14835854,0.12150267,-0.43599296,0.495058,-0.42798382,0.50500643,0.50958633,-0.3832514,-0.01945422,0.9268905,0.7069069,0.07942089,0.41385013,Ba/Sq
TCGA-2F-A9KT,-0.054978702,-0.11548255,-0.16744862,-0.06914131,0.326599,0.2833724,0.3140167,-0.19114502,-0.05364071,-0.013084605,0.09552442,-0.23799181,0.28056452,0.30978388,0.014026538,-0.14532888,0.22368723,0.029698886,0.34911236,0.2554237,Ba/Sq
TCGA-4Z-AA7Q,-0.26805303,-0.20545337,-0.40869772,-0.21925472,1.012594,0.91582423,0.37809807,-0.03461265,-0.44960523,0.17695059,0.023639694,-0.44093847,0.26230204,0.9966693,0.35587186,-0.6021329,0.3443249,0.07627647,1.1074553,0.44509763,Ba/Sq
TCGA-4Z-AA7W,-0.013038658,-0.023191318,-0.30192918,-0.34688607,1.3216444,0.8665036,0.065545596,0.23260182,-0.67113507,0.24169074,0.14379296,-0.4338916,0.27253833,1.2728205,0.53913283,-1.0351504,0.2699879,0.1002206,1.5128376,0.47433114,Ba/Sq
TCGA-4Z-AA81,-0.21446028,-0.24566396,-0.36028606,-0.31185538,1.035208,0.7699787,0.21171306,-0.07187405,-0.478836,0.36157078,-0.043986157,-0.3984654,0.28853732,0.88470757,0.48054317,-0.75013286,0.19116062,-0.114115484,1.2245067,0.39041403,Ba/Sq
TCGA-4Z-AA82,-0.032556754,-0.033959538,-0.2867474,-0.32923222,1.225762,0.9439296,0.1652568,0.26970398,-0.54929936,0.078350544,0.16520458,-0.4532544,0.22871205,1.2348588,0.45474663,-0.85070074,0.44288117,0.22705886,1.3158889,0.5234114,Ba/Sq
TCGA-4Z-AA84,-0.2636434,-0.3548872,-0.3077374,-0.41996872,1.1348313,0.7731452,0.06683938,-0.024381146,-0.523366,0.42289597,-0.22287485,-0.34345448,0.22124103,0.91257596,0.6196524,-0.878224,0.20531705,-0.18770257,1.3744678,0.38440496,Ba/Sq
TCGA-4Z-AA86,-0.04396827,0.037979856,-0.24726096,-0.14318168,0.8170217,0.7774186,0.33283183,0.16670623,-0.29605803,-0.10649474,0.29139602,-0.45841485,0.26736838,0.99140275,0.15262064,-0.44485384,0.49534458,0.34225988,0.83273983,0.45440745,Ba/Sq
TCGA-BL-A13I,-0.11073819,-0.1022419,-0.29330426,-0.22135611,0.7819825,0.63119876,0.2725621,-0.0083564,-0.32819906,0.07101953,0.14355353,-0.3693998,0.26160523,0.7893251,0.2334021,-0.51196,0.29593405,0.060652383,0.8685591,0.42047757,Ba/Sq
TCGA-BL-A13J,-0.10955538,-0.20838667,-0.14624019,-0.4370435,1.0629022,0.62641317,-0.031123102,0.051280364,-0.56369764,0.26184756,-0.2020705,-0.1859771,0.27038231,0.79535544,0.5564977,-0.9030575,0.2562483,-0.16943583,1.1760495,0.34065187,Ba/Sq
TCGA-BL-A5ZZ,-0.16061868,-0.1939163,-0.30878878,-0.18828773,0.74033445,0.64514506,0.2633524,-0.09786634,-0.31938228,0.1765375,0.054148532,-0.3246795,0.308005,0.76299894,0.27389297,-0.4938535,0.2757451,0.024153851,0.8536,0.39941543,Ba/Sq
TCGA-BT-A0S7,-0.29859364,-0.12896019,-0.50934374,0.066348,0.5111605,0.63795686,0.6585394,-0.4037928,-0.24865988,0.19252883,0.14521554,-0.40315974,0.46822625,0.5487248,0.062176436,-0.14633171,0.19306628,0.09460486,0.56052256,0.2374115,Ba/Sq
TCGA-BT-A0YX,-0.26908097,-0.354818,-0.2970287,-0.35371506,0.9471184,0.6574482,0.142628,-0.09443867,-0.41466767,0.35591888,-0.24409088,-0.30710393,0.23720995,0.73346555,0.49979427,-0.6880179,0.19016033,-0.17658252,1.1300249,0.3024304,Ba/Sq
TCGA-BT-A20J,0.0011731833,-0.017895952,-0.12940037,-0.30652803,0.74866813,0.5409604,0.14013419,0.1692583,-0.32910565,-0.068543814,0.15150312,-0.26453817,0.2808977,0.76510036,0.24062803,-0.58001804,0.39507648,0.10936215,0.79526067,0.42328927,Ba/Sq
TCGA-BT-A20N,-0.25074148,-0.37097788,-0.31997323,-0.18395889,0.64906424,0.4419149,0.22659363,-0.38232088,-0.33998346,0.4794265,-0.20547,-0.21155533,0.47147396,0.48124322,0.43793908,-0.50530136,0.11609803,-0.2151353,0.81160784,0.21770743,Ba/Sq
TCGA-BT-A20O,-0.2987126,-0.42062294,-0.34535748,-0.33625624,1.0809647,0.6775212,0.082777426,-0.26190737,-0.63396245,0.6562095,-0.3299951,-0.2584281,0.44167992,0.80774856,0.7302946,-0.9355397,0.11740921,-0.29110575,1.35638,0.26853395,Ba/Sq
TCGA-BT-A20U,-0.1281712,-0.13556033,-0.27654982,-0.20416674,0.8067246,0.6616894,0.26441014,-0.02971717,-0.3553689,0.12138091,0.090401255,-0.36036873,0.28875232,0.8053893,0.2823145,-0.53087735,0.3156198,0.05943542,0.8884356,0.42296055,Ba/Sq
TCGA-BT-A20V,-0.14901084,-0.31549555,-0.43868273,-0.115238786,0.7418278,0.40860754,0.20802955,-0.33407307,-0.37888187,0.63624877,0.06454634,-0.3638695,0.515748,0.73841083,0.4342201,-0.6449689,-0.03031239,-0.09792764,1.0893486,0.22627285,Ba/Sq
TCGA-BT-A20X,-0.13474014,-0.18517195,-0.31862256,-0.21079934,0.8178663,0.6139228,0.20238055,-0.03538333,-0.33857748,0.21343575,0.10558572,-0.39764994,0.2690614,0.81190085,0.31030947,-0.58419484,0.22323275,0.027237259,1.0105845,0.39586544,Ba/Sq
TCGA-BT-A2LD,-0.28783274,-0.08220172,-0.24063814,-0.015187636,0.19916442,0.4438999,0.5740383,-0.2965046,-0.03379333,-0.12813178,0.07382334,-0.2540487,0.29823,0.1406389,-0.13571474,0.05005049,0.32007766,0.08776095,0.14996402,0.18137914,Ba/Sq
TCGA-BT-A3PJ,-0.14169267,-0.35791543,-0.10702902,-0.19812545,0.4026933,0.13190535,0.0903245,-0.34375662,-0.14855054,0.33811957,-0.17769796,-0.087001994,0.3134539,0.20713684,0.29423845,-0.42039496,0.052162036,-0.2640355,0.5862848,0.20937693,Ba/Sq
TCGA-BT-A3PK,-0.73342335,0.080096334,-0.2525996,0.44778687,-0.06565064,0.9950047,1.1292262,-0.39504662,0.10023252,-0.3654697,0.3439128,-0.37989455,0.5893623,0.2729109,-0.5666721,0.3179011,0.9377079,0.7240434,-0.16598062,0.21588042,Ba/Sq
TCGA-BT-A42E,-0.2100539,-0.24751472,-0.37370118,-0.055096492,0.5436529,0.48797512,0.3998593,-0.29092062,-0.18940458,0.23596428,0.012644649,-0.34275383,0.3858444,0.51045823,0.1996808,-0.28523472,0.17325193,-0.007025756,0.6474649,0.25985867,Ba/Sq
TCGA-BT-A42F,-0.054355178,-0.1647116,-0.2887629,-0.16702338,0.6292778,0.4217895,0.22898255,-0.104099,-0.24820152,0.1980883,0.12076103,-0.33295733,0.3349377,0.65407443,0.22837844,-0.4276553,0.17030114,0.024402507,0.76724035,0.31897348,Ba/Sq
TCGA-C4-A0F0,-0.2886712,-0.13916688,-0.49327254,0.120150685,0.3930649,0.5565352,0.6513536,-0.39797235,-0.15372956,0.16403694,0.19035605,-0.428618,0.44715405,0.5276984,0.04543154,-0.079573475,0.18797886,0.14631677,0.4893671,0.25187454,Ba/Sq
TCGA-C4-A0F1,-0.14297675,-0.2935012,-0.2767174,-0.17713676,0.6184171,0.3117627,0.16051081,-0.2847373,-0.2917979,0.45805818,-0.04949861,-0.2728869,0.36102647,0.51958823,0.36191005,-0.54340947,0.0047190487,-0.17184344,0.8812608,0.2259902,Ba/Sq
TCGA-C4-A0F7,-0.27704382,-0.47810292,-0.2646783,-0.23807947,0.73325187,0.38709426,0.08546725,-0.4398201,-0.44547248,0.6831054,-0.31900257,-0.14612359,0.48098204,0.5197207,0.5815203,-0.7189971,0.036461115,-0.33725083,1.0242916,0.22190842,Ba/Sq
TCGA-CF-A1HS,-0.13347366,-0.24755608,-0.30858645,-0.12629634,0.5605302,0.33849624,0.25323054,-0.28031045,-0.25233877,0.35759544,0.024254046,-0.29825765,0.3657105,0.48409733,0.25020796,-0.43462002,0.05912006,-0.10081724,0.7656202,0.23121507,Ba/Sq
TCGA-CU-A0YN,-0.691126,0.06338851,-0.3176377,0.5068578,-0.19745496,0.8468483,1.203502,-0.56574047,0.16871215,-0.23791872,0.39376542,-0.3689636,0.63747823,0.17681731,-0.55235994,0.33437315,0.7852359,0.7487772,-0.19490272,0.1405687,Ba/Sq
TCGA-CU-A3KJ,-0.08233954,-0.18273059,-0.33894742,-0.1782357,0.8126369,0.50834274,0.18011096,-0.115318485,-0.3181741,0.3414545,0.09699453,-0.39337325,0.34028646,0.7671813,0.35596883,-0.5832498,0.10390605,-0.018738918,1.021613,0.31539264,Ba/Sq
TCGA-CU-A72E,-0.12043542,-0.29811162,-0.22437352,-0.12464076,0.43415156,0.23594758,0.19705167,-0.28037727,-0.16393289,0.30315584,-0.049643733,-0.21919493,0.33360857,0.37372857,0.23699027,-0.35656592,0.08851479,-0.10069474,0.62347496,0.21924767,Ba/Sq
TCGA-DK-A1A5,-0.29160494,-0.32874334,-0.31393382,-0.47169462,1.3318255,0.92903453,0.060563594,-0.06753895,-0.76496255,0.5428656,-0.31586248,-0.27609956,0.41012323,1.0197133,0.78462684,-1.0889423,0.26208532,-0.23387149,1.5238287,0.36128363,Ba/Sq
TCGA-DK-A1AB,-0.15189841,-0.2654891,-0.34974465,-0.21969764,0.9052519,0.51265,0.1372477,-0.20923437,-0.4430954,0.5170541,-0.04887936,-0.36616892,0.339765,0.7534003,0.47728357,-0.74900144,0.03750445,-0.15005699,1.1944506,0.2680721,Ba/Sq
TCGA-DK-A1AE,-0.39979994,-0.41654283,-0.34514773,-0.33387938,0.9577472,0.74411786,0.225514,-0.368577,-0.57989854,0.58237773,-0.4102177,-0.20257272,0.5201765,0.6133772,0.6426983,-0.7211128,0.20042388,-0.32649797,1.0841168,0.20077762,Ba/Sq
TCGA-DK-A2I2,-0.22879215,-0.27021623,-0.2951929,-0.15133813,0.5555337,0.48389,0.3253755,-0.2086913,-0.21835148,0.16487898,-0.08101909,-0.27193975,0.2888558,0.4880667,0.19728503,-0.31327653,0.2187257,-0.044777952,0.6281941,0.26948544,Ba/Sq
TCGA-DK-A2I4,-0.16296016,-0.2510701,-0.2798745,-0.37182486,1.0448167,0.68567204,0.043477833,-0.021244548,-0.5050593,0.37354302,-0.08645276,-0.3110345,0.28814965,0.9003446,0.5450115,-0.8378676,0.20600602,-0.12709543,1.2536374,0.37800756,Ba/Sq
TCGA-DK-A2I6,-0.13122605,-0.092438854,-0.19694485,-0.302486,0.93079364,0.69997376,0.14924827,0.13479155,-0.42880183,0.02621369,0.041829348,-0.34947824,0.118998855,0.9002259,0.30998108,-0.68050534,0.3229314,0.067182265,1.0834174,0.4225688,Ba/Sq
TCGA-DK-A3IM,-0.077001944,-0.22488065,-0.04998268,-0.20544341,0.3235863,0.08879827,0.15782848,-0.3197582,-0.16024321,0.20496477,-0.091248825,-0.026273556,0.4116951,0.20465386,0.2463727,-0.43218818,0.100072384,-0.22550207,0.46579224,0.20657924,Ba/Sq
TCGA-DK-A3IN,-0.09841967,-0.20903347,-0.30037156,-0.32246506,1.0244131,0.56302,0.014542319,-0.030114561,-0.47792006,0.44473988,-0.004896313,-0.37538475,0.26807266,0.88789487,0.524297,-0.86785,0.07596189,-0.12820402,1.3165725,0.33049697,Ba/Sq
TCGA-DK-A3IU,-0.077238575,-0.112655774,-0.31044778,-0.33319348,1.085965,0.7815717,0.11109951,0.14311472,-0.46520787,0.19724055,0.15099621,-0.44977134,0.19082063,1.0729707,0.42316923,-0.8190466,0.25808808,0.05719187,1.3094525,0.48433566,Ba/Sq
TCGA-DK-A3WW,-0.46136206,0.038499787,-0.5095944,0.42614478,0.15346578,0.8522089,1.0467281,-0.42058966,0.041881286,-0.11665595,0.5196483,-0.57726884,0.48666257,0.50828886,-0.34485048,0.17087393,0.5472274,0.61014956,0.17011908,0.28895542,Ba/Sq
TCGA-DK-A3WX,-0.93403816,0.19951035,-0.31640932,0.8246731,-0.29524213,1.2343,1.5196587,-0.59764695,0.20729822,-0.41901362,0.60051465,-0.4382658,0.81146723,0.3504135,-0.8649993,0.43376705,1.1873808,1.1347696,-0.34258395,0.22343208,Ba/Sq
TCGA-DK-A3X2,-0.28167546,-0.4021052,-0.42839822,-0.22517213,0.947075,0.5888045,0.20568958,-0.3345003,-0.48152858,0.69521546,-0.17515405,-0.3912292,0.39504337,0.77722096,0.59100866,-0.78958863,-0.015686959,-0.24378648,1.3125544,0.26320666,Ba/Sq
TCGA-DK-A6B5,-0.12006545,-0.14742945,-0.39587688,-0.20898727,0.9630356,0.7444645,0.26644284,-0.0029981285,-0.3980126,0.24842454,0.18147421,-0.47195786,0.304331,1.0072869,0.35819006,-0.64408815,0.21870661,0.0717622,1.1416373,0.4463423,Ba/Sq
TCGA-DK-AA6L,-0.13825352,-0.13960883,-0.2906164,-0.20481417,0.78099495,0.64926857,0.25639316,0.029699296,-0.30033267,0.07913439,0.12555096,-0.3970673,0.20075342,0.8130313,0.2183826,-0.49911964,0.29263324,0.102589615,0.9190259,0.40882492,Ba/Sq
TCGA-DK-AA6M,-0.11855003,0.088901624,-0.19868307,0.051790416,0.35962623,0.58382505,0.518011,-0.000119552016,0.030277565,-0.24517125,0.40181404,-0.43767053,0.28435957,0.5674976,-0.14467363,-0.15141754,0.5132767,0.3734361,0.37182263,0.37072206,Ba/Sq
TCGA-DK-AA6Q,-0.21002142,-0.27455962,-0.30318448,-0.23493795,0.8137812,0.67494017,0.2488718,-0.09084918,-0.31314555,0.19781856,-0.07344034,-0.32662964,0.25452757,0.7235031,0.32945365,-0.521057,0.27111813,-0.038630128,0.91585004,0.37877008,Ba/Sq
TCGA-DK-AA6R,-0.2678805,-0.17279582,-0.43704328,-0.1878587,0.9735176,0.8935652,0.38140488,-0.050029106,-0.44907153,0.20066778,0.09610925,-0.47489864,0.27634218,1.0102135,0.33150554,-0.6107236,0.30358285,0.100994445,1.1417322,0.44093108,Ba/Sq
TCGA-DK-AA6S,-0.17332782,-0.08455805,-0.35952562,0.12853038,0.4009126,0.6108753,0.5865338,-0.21695268,-0.08058655,0.030867368,0.28885582,-0.43048745,0.44212148,0.6541877,-0.052421726,-0.06798225,0.3737098,0.29888093,0.4096331,0.33043683,Ba/Sq
TCGA-DK-AA74,-0.14999683,-0.12985247,-0.42736495,-0.20482716,0.9917746,0.8160603,0.2975944,0.09100938,-0.37519473,0.12954079,0.22466409,-0.52742434,0.20196217,1.0895725,0.2962534,-0.63580596,0.28487873,0.18274063,1.1923078,0.465648,Ba/Sq
TCGA-E5-A2PC,-0.27767834,-0.22266597,-0.46887547,-0.11082668,0.8776409,0.7730724,0.40558636,-0.20734057,-0.39105496,0.32244694,0.053445853,-0.45912874,0.34496117,0.90037394,0.37168846,-0.5413738,0.19724436,0.036715247,1.0733805,0.3853232,Ba/Sq
TCGA-E5-A4TZ,-0.09622699,-0.039054126,-0.21648031,-0.09022831,0.4427083,0.4197854,0.3267302,-0.08574627,-0.12963425,-0.047458857,0.18940726,-0.3531518,0.23588535,0.48546723,0.04581864,-0.226401,0.24739273,0.09912496,0.5291915,0.31693918,Ba/Sq
TCGA-E7-A3X6,-0.15412697,-0.23231716,-0.363518,-0.41263992,1.2853574,0.7545357,0.012303844,0.039203435,-0.6424285,0.5019407,-0.04451613,-0.4257905,0.224263,1.0902032,0.6725457,-1.103993,0.09264905,-0.17087594,1.6308222,0.4062066,Ba/Sq
TCGA-E7-A7DV,-0.22025733,-0.09226766,-0.14724791,-0.079053566,0.33031788,0.52165836,0.4132524,-0.07379541,-0.03729935,-0.17882375,0.057918318,-0.29041004,0.22513026,0.4294572,-0.03234911,-0.10784937,0.4564346,0.2061497,0.34604478,0.3148908,Ba/Sq
TCGA-E7-A7XN,-0.55477077,0.077470765,-0.19169535,0.21991822,0.15754893,0.9209282,0.90374076,-0.19925234,0.059529133,-0.41197717,0.27816898,-0.4057907,0.42728406,0.34819037,-0.3891428,0.15395316,0.85909224,0.55138814,0.04118017,0.27495533,Ba/Sq
TCGA-E7-A97P,-0.1968969,-0.032885462,-0.38978395,-0.036456943,0.76570845,0.83767265,0.50838435,0.031253487,-0.24127981,-0.07598847,0.2710417,-0.5333581,0.21539624,0.9676336,0.088608146,-0.31407243,0.4138066,0.32873487,0.82649255,0.4338716,Ba/Sq
TCGA-FD-A3B3,-0.4186025,0.0785341,-0.37572297,0.32597914,0.31399858,0.9271021,0.903257,-0.17972109,-0.012691565,-0.267144,0.4447374,-0.5503569,0.43721053,0.6565579,-0.3023295,0.08419515,0.71884483,0.6093563,0.23983774,0.30209556,Ba/Sq
TCGA-FD-A3B4,-0.39522672,0.058821842,-0.35050327,0.3424996,0.17727444,0.80020475,0.9104779,-0.31568095,0.05456708,-0.1838875,0.45087367,-0.4989065,0.5058218,0.45719096,-0.33113688,0.118005484,0.63767695,0.5306761,0.12710193,0.29935402,Ba/Sq
TCGA-FD-A3B5,-0.13726334,-0.26613465,-0.37911138,-0.30883184,1.1628808,0.7287303,0.08812104,-0.024232253,-0.5026538,0.49151838,-0.0034129247,-0.45924973,0.27486646,1.0671786,0.58561635,-0.9109782,0.11488187,-0.07363943,1.4856669,0.40766752,Ba/Sq
TCGA-FD-A3B6,-0.34547725,-0.01021643,-0.2481691,0.15718544,0.19504683,0.65340966,0.73095524,-0.23840068,0.04685566,-0.18806118,0.27040017,-0.4095791,0.3851082,0.36236608,-0.22371581,0.08089825,0.5528277,0.39375466,0.16271219,0.28342408,Ba/Sq
TCGA-FD-A3B7,-0.26268977,-0.1966296,-0.51560426,-0.018063098,0.6888223,0.7323222,0.5539617,-0.22581105,-0.25319293,0.17185442,0.1712825,-0.48475444,0.3515833,0.7849419,0.18063158,-0.33640152,0.24494033,0.13245237,0.81530464,0.40125322,Ba/Sq
TCGA-FD-A3B8,-0.2583016,-0.019147724,-0.3912518,0.042547375,0.5818416,0.8175234,0.64355326,-0.08027888,-0.14701086,-0.119856425,0.2792452,-0.5141667,0.28276327,0.75338864,-0.037707403,-0.1421645,0.4481973,0.3246956,0.57180464,0.37732613,Ba/Sq
TCGA-FD-A3N5,-0.13138188,-0.2076819,-0.39686355,-0.23876435,0.9264351,0.6089554,0.17190309,-0.06559991,-0.38729683,0.38710338,0.12250512,-0.46028173,0.31451875,0.9044795,0.44434848,-0.7157384,0.09194811,-0.04968208,1.2073708,0.3886874,Ba/Sq
TCGA-FD-A3N6,-0.024149198,-0.065719105,-0.19914961,-0.06566775,0.40969056,0.37174302,0.31608504,-0.06670828,-0.082913935,-0.033341654,0.1932374,-0.32318735,0.28784055,0.5016203,0.015649602,-0.1772914,0.27361873,0.1455861,0.44348165,0.3102867,Ba/Sq
TCGA-FD-A3SN,-0.10302949,-0.07165018,-0.31231245,-0.15546764,0.70491207,0.62297136,0.3209077,0.035501644,-0.24137011,0.027923122,0.25199428,-0.4627579,0.24301755,0.80722415,0.16651887,-0.42277047,0.28529334,0.16389346,0.86076945,0.44083285,Ba/Sq
TCGA-FD-A3SO,-0.15970698,-0.12681492,-0.39706177,-0.17611587,0.8487039,0.741233,0.33603343,0.012717888,-0.30917686,0.11586042,0.2181612,-0.4889685,0.2557001,0.9312124,0.26342022,-0.51569337,0.2721884,0.13719448,1.0175085,0.462588,Ba/Sq
TCGA-FD-A3SP,-1.5921189,0.36844182,-0.5524524,1.2886198,-0.8777388,1.6765903,2.4147387,-1.1786907,0.35731146,-0.39027113,0.905378,-0.42264748,1.4200795,0.16396885,-1.2788656,0.73107904,1.5741928,1.7523192,-0.7791029,0.06103261,Ba/Sq
TCGA-FD-A3SS,-0.20191468,-0.23051505,-0.47655362,-0.11734827,0.7966111,0.6506781,0.4029229,-0.19710097,-0.3111043,0.33310556,0.13291472,-0.4796912,0.34997207,0.81186426,0.30027917,-0.509575,0.12977837,0.010169633,1.0127773,0.3681255,Ba/Sq
TCGA-FD-A43Y,-0.39648047,0.117318705,-0.44546923,0.19560355,0.64559746,1.2159721,0.90294194,-0.00030356646,-0.1455542,-0.27178967,0.5112923,-0.6835414,0.3779868,1.0709372,-0.19250558,-0.12007254,0.80052215,0.69561297,0.599826,0.48128754,Ba/Sq
TCGA-FD-A5BT,-0.11737771,-0.09014932,-0.42274243,-0.09960477,0.9111367,0.81518245,0.40418062,0.007384315,-0.3459504,0.11867279,0.26605588,-0.5195405,0.3092956,1.0240881,0.2254386,-0.5062988,0.33503675,0.22236946,1.0054736,0.44138676,Ba/Sq
TCGA-FD-A5BU,-0.08319731,-0.12272421,-0.2555487,-0.24834321,0.8402353,0.66759443,0.19457616,0.0678058,-0.33379278,0.08314812,0.13878328,-0.37919444,0.24619284,0.87171674,0.26910967,-0.57166207,0.33457714,0.10157149,0.96889186,0.44258827,Ba/Sq
TCGA-FD-A5BY,-0.19207336,0.008040667,-0.28434485,0.0058244616,0.58859307,0.81959176,0.57685626,0.015284136,-0.14069161,-0.18463774,0.28880292,-0.4773816,0.31552434,0.7957015,-0.017877407,-0.2104927,0.59138405,0.40006083,0.54377997,0.43614507,Ba/Sq
TCGA-FD-A5C1,-0.39283538,-0.0011405498,-0.23303127,0.14871356,0.20540819,0.7275148,0.72654986,-0.17069668,0.009796441,-0.25364834,0.2633318,-0.40753675,0.3610193,0.40861326,-0.27496678,0.07694033,0.6124338,0.42146313,0.1917958,0.27296478,Ba/Sq
TCGA-FD-A62N,-0.3593803,0.31527686,0.2426322,0.088769644,0.13491368,0.9308793,0.75607955,0.035040155,0.08535593,-0.8053225,0.2425411,-0.11013702,0.67594665,0.25071707,-0.35575718,-0.1499736,1.2173226,0.5269473,-0.115397,0.3960659,Ba/Sq
TCGA-FD-A62P,-0.073064715,-0.04552719,-0.34358612,-0.15307033,0.80850303,0.6908712,0.3057027,0.0571433,-0.2947108,0.06731339,0.2836634,-0.47103524,0.28006977,0.9366107,0.20276865,-0.4830507,0.29843998,0.19190633,0.9337789,0.42096746,Ba/Sq
TCGA-FD-A62S,-0.44810385,-0.010429338,-0.51659465,-0.051469468,0.720634,1.057501,0.77487636,-0.037300497,-0.32331964,-0.1648155,0.28663218,-0.5874472,0.24778774,0.93745816,-0.017462537,-0.20107332,0.48895025,0.34625247,0.77410233,0.39844584,Ba/Sq
TCGA-FD-A6TD,-0.065650284,0.36985695,-0.0449392,0.15357,0.53502524,0.9535014,0.60853755,0.24989039,-0.022825733,-0.5459446,0.6046748,-0.44630182,0.5162262,0.8672906,-0.22133648,-0.3306637,1.0050724,0.7064906,0.37955645,0.5073794,Ba/Sq
TCGA-FD-A6TH,-0.13482226,-0.11802554,-0.27873814,-0.18898547,0.7212944,0.60113263,0.27307734,-0.0003902316,-0.27749747,0.0631953,0.1265885,-0.38298798,0.21147187,0.75178766,0.19619814,-0.45744225,0.26905766,0.08158768,0.8393754,0.39780432,Ba/Sq
TCGA-FD-A6TK,-0.5394008,0.20107333,-0.15505442,0.4060514,0.15691814,1.0916258,1.0285144,-0.20023364,0.12390758,-0.48484397,0.4434737,-0.4342239,0.6358812,0.4583399,-0.47124827,0.13215503,1.0867643,0.7448798,-0.06903171,0.3496958,Ba/Sq
TCGA-FT-A61P,-0.27767265,0.15729432,-0.37026227,0.2874724,0.43320304,0.94020367,0.8280667,-0.094340995,0.012331955,-0.20451841,0.5870074,-0.65025294,0.38630664,0.805019,-0.2683932,-0.06981096,0.66351056,0.64707965,0.4294851,0.41991973,Ba/Sq
TCGA-G2-A2EF,-0.865147,-0.06823023,-0.56608653,0.6230769,-0.6322086,0.16024189,1.4959983,-1.4348588,0.16700336,0.5614285,0.38583958,-0.3061641,0.9759889,-0.25844175,-0.32215464,0.31760642,-0.037447378,0.5495805,0.04492113,-0.16235341,Ba/Sq
TCGA-G2-A2EJ,-0.2722089,-0.13688716,-0.3827756,0.0118781775,0.44945788,0.5025947,0.5126173,-0.33186758,-0.18971327,0.13666986,0.094384916,-0.379421,0.32828963,0.45611265,0.06990686,-0.18535048,0.16026618,0.043783136,0.5738473,0.24046707,Ba/Sq
TCGA-G2-A2ES,-0.14916812,-0.2995118,-0.2768392,-0.30752885,1.0000974,0.5612925,0.02809801,-0.11324391,-0.5329995,0.50406945,-0.1525994,-0.28071922,0.33611685,0.8603351,0.57715154,-0.87647986,0.110375315,-0.16639471,1.2764986,0.31177178,Ba/Sq
TCGA-G2-A3IB,-0.25359932,-0.13193327,-0.32104635,-0.15616697,0.57542,0.63448715,0.46333596,-0.11752851,-0.22585446,-0.01472573,0.088868774,-0.35414875,0.2600952,0.57711065,0.070713386,-0.2553726,0.3069058,0.05238416,0.6001077,0.34406728,Ba/Sq
TCGA-G2-AA3C,-0.11780849,-0.054403864,-0.21842495,0.018461376,0.26734343,0.38436693,0.4499783,-0.15741768,0.012561657,-0.08291871,0.22950447,-0.35246402,0.27255243,0.35266405,-0.09197812,-0.044865757,0.28944397,0.17746377,0.30378637,0.27918103,Ba/Sq
TCGA-GC-A3I6,-0.34420443,-0.35408783,-0.3912751,-0.27485085,0.89988905,0.64909035,0.22099745,-0.35973746,-0.50251424,0.57080114,-0.25019553,-0.2820657,0.4484434,0.61651945,0.5789901,-0.7177725,0.09368803,-0.2994663,1.1171175,0.22267947,Ba/Sq
TCGA-GC-A3RC,-0.13515575,-0.046049662,-0.2969022,-0.21459457,0.86601585,0.7844048,0.3039803,0.113585755,-0.35336238,-0.0052782446,0.24313453,-0.4591598,0.22727543,0.9781425,0.19905767,-0.54294467,0.40126538,0.19509697,0.98206764,0.47375542,Ba/Sq
TCGA-GC-A3WC,-0.1493766,-0.2837027,-0.37077758,-0.17358199,0.799565,0.48076296,0.20566621,-0.24828649,-0.35713783,0.49293363,-0.034111388,-0.35771382,0.37779897,0.71308374,0.42700914,-0.6107035,0.03657794,-0.11847524,1.0508589,0.26214296,Ba/Sq
TCGA-GC-A3YS,-0.15995163,-0.26996127,-0.35825923,-0.12105854,0.60692024,0.34380525,0.2347963,-0.33167225,-0.30444118,0.46775097,0.03141863,-0.30834818,0.42239368,0.52900434,0.34674418,-0.52185816,0.0070937723,-0.13839659,0.85999525,0.22247136,Ba/Sq
TCGA-GC-A6I1,-0.07109758,-0.09220813,-0.12875237,-0.2960034,0.7392734,0.54808766,0.15994689,0.11055344,-0.2799162,-0.04321605,0.06917647,-0.32149082,0.13520965,0.68820834,0.22008935,-0.5574149,0.32911968,0.03600744,0.8679251,0.44343692,Ba/Sq
TCGA-GD-A3OQ,-0.1646691,-0.23643908,-0.2512988,-0.13715997,0.4200723,0.31345814,0.2706095,-0.24631478,-0.1556437,0.20664854,0.007923361,-0.27910328,0.29191306,0.35397834,0.16382423,-0.31441027,0.113293804,-0.103892624,0.5927659,0.2745083,Ba/Sq
TCGA-GD-A3OS,-0.9785734,0.07287891,-0.32375047,0.5515211,-0.40855357,0.9706394,1.423713,-0.7134905,0.16394259,-0.2895524,0.35998338,-0.24465448,0.85103434,0.0050515383,-0.7117878,0.46796238,0.9455418,0.8336795,-0.41101202,0.044165984,Ba/Sq
TCGA-GU-A42Q,-0.17528585,-0.11506152,-0.38129312,-0.18318263,0.9087408,0.8331228,0.3403138,0.044224337,-0.36033344,0.0862264,0.16943923,-0.4647147,0.22516258,0.99311817,0.27311206,-0.5504387,0.34847447,0.17676729,1.0405809,0.4631074,Ba/Sq
TCGA-GU-A762,-0.06306249,0.08165492,-0.35074872,0.019228458,0.6525133,0.7346751,0.4934915,0.08524199,-0.13578717,-0.09772968,0.46550894,-0.5698811,0.3155154,0.9319413,0.0346476,-0.27355567,0.43811464,0.4337589,0.69283026,0.42368126,Ba/Sq
TCGA-GU-A764,-0.07476348,0.06204453,-0.27302092,-0.19986662,0.9161982,0.85647243,0.32835072,0.2304838,-0.36706784,-0.11389307,0.3334472,-0.5052424,0.25056875,1.1100606,0.19926536,-0.5389125,0.5069865,0.35809356,0.98033845,0.5064363,Ba/Sq
TCGA-GU-A766,-0.13209756,-0.053116463,-0.2575172,0.059896633,0.33192587,0.49187595,0.50118303,-0.15599744,-0.010954343,-0.056912392,0.2595766,-0.39481103,0.33446923,0.48140648,-0.068001285,-0.07320243,0.35921443,0.23776865,0.34536144,0.32409358,Ba/Sq
TCGA-GU-AATQ,-0.09464778,-0.12604503,-0.24033666,-0.221409,0.71519446,0.5176687,0.20883362,-0.0285535,-0.2673786,0.11677916,0.103870265,-0.35352284,0.21665595,0.6392119,0.22280306,-0.48559844,0.19857374,-0.022671878,0.83504355,0.37360102,Ba/Sq
TCGA-GV-A40E,-0.021413077,0.020048067,-0.23561227,-0.10209147,0.679091,0.7044891,0.37670612,0.12662145,-0.19059846,-0.1163561,0.29419118,-0.426435,0.3075226,0.8569454,0.08920336,-0.352133,0.50192916,0.34850687,0.6485995,0.4518729,Ba/Sq
TCGA-HQ-A5ND,-0.5334381,0.15143473,-0.36455062,0.5765919,0.1320987,1.053831,1.1473585,-0.31897637,0.12427956,-0.29066354,0.6272202,-0.6173765,0.5786767,0.6384057,-0.5242268,0.18381636,0.8898606,0.87365025,0.064356126,0.37493414,Ba/Sq
TCGA-HQ-A5NE,-0.120609194,-0.22779143,-0.39635485,-0.12237863,0.87889934,0.65750176,0.27698463,-0.13366003,-0.35197684,0.3329224,0.072373904,-0.42341083,0.36679387,0.9208677,0.36001882,-0.57345605,0.19918655,0.08337777,1.075515,0.3673992,Ba/Sq
TCGA-K4-A3WV,-0.19577828,-0.33375233,-0.33579606,-0.047294535,0.4254488,0.27637038,0.29913536,-0.46630406,-0.21908471,0.48390573,-0.044947088,-0.21065757,0.49401227,0.39154783,0.29537654,-0.3607367,0.019877404,-0.13208981,0.6546213,0.18973505,Ba/Sq
TCGA-K4-A4AB,-0.14386293,0.050264,-0.4029226,-0.17196602,0.91789824,0.9086824,0.42503494,0.15809524,-0.36299047,-0.039924018,0.38845533,-0.56510293,0.237504,1.12028,0.19039744,-0.5118483,0.40378988,0.3002125,1.0250988,0.4998865,Ba/Sq
TCGA-K4-A4AC,-0.20146346,0.0055590123,-0.26884478,-0.05757782,0.5569109,0.76043546,0.5097216,0.033908904,-0.122687176,-0.19553682,0.26684055,-0.44690192,0.2581001,0.7336515,-0.0027466714,-0.22388363,0.5285734,0.32331476,0.55035114,0.4275662,Ba/Sq
TCGA-K4-A5RH,-0.13834783,-0.19613425,-0.436663,-0.35008025,1.3402088,0.90837824,0.11845725,0.07328458,-0.6153754,0.47157615,0.10857441,-0.5290752,0.28660047,1.2873452,0.6332371,-1.0254432,0.17717241,-0.006850846,1.6510603,0.47759438,Ba/Sq
TCGA-K4-A5RI,-0.10650726,-0.08188472,-0.4675895,-0.17650962,1.0604854,0.89925265,0.3290217,0.08889791,-0.44453335,0.19226708,0.3005395,-0.5560959,0.31089872,1.2186346,0.35526526,-0.6689684,0.31165457,0.22987145,1.2314893,0.48402297,Ba/Sq
TCGA-K4-A5RJ,-0.14584778,-0.08838867,-0.33889812,-0.12069165,0.73067266,0.6516564,0.35119456,-0.052979723,-0.2654072,0.066699505,0.1761511,-0.4169364,0.2635158,0.7778635,0.16468674,-0.40295073,0.26496992,0.123483606,0.82190526,0.38072944,Ba/Sq
TCGA-K4-A6FZ,-0.24374445,-0.2934407,-0.35580617,-0.1055774,0.61315036,0.52802235,0.35545552,-0.3296023,-0.2540481,0.30459613,-0.075800896,-0.3065734,0.3341095,0.5122216,0.27507842,-0.39003998,0.15092814,-0.10166861,0.7581013,0.29579204,Ba/Sq
TCGA-LC-A66R,-0.40103844,-0.009408891,-0.29136157,0.30776203,0.08707498,0.66125137,0.8273696,-0.3927029,0.027681172,-0.11588564,0.2933477,-0.3509701,0.5849786,0.2928248,-0.34015536,0.18972388,0.5792222,0.40855432,-0.01968446,0.18120122,Ba/Sq
TCGA-PQ-A6FI,-0.122739494,-0.21371093,-0.37608248,-0.1826154,0.9132227,0.63678354,0.20300907,-0.11651867,-0.41598344,0.39326143,0.07351462,-0.40627468,0.38083172,0.9051279,0.43090877,-0.66980004,0.16371433,0.011095226,1.1331534,0.36486247,Ba/Sq
TCGA-PQ-A6FN,-0.18165869,-0.113182046,-0.2164582,-0.24800518,0.7719374,0.74587685,0.29602218,0.048767373,-0.34239277,-0.02343297,0.050948277,-0.33142626,0.2709162,0.7939483,0.2362124,-0.47340152,0.46006772,0.13354349,0.8062404,0.42528173,Ba/Sq
TCGA-SY-A9G5,-0.22540618,-0.022220641,-0.40209794,-0.0067590475,0.7034925,0.8860729,0.5849077,0.04286194,-0.19740939,-0.10987353,0.32844055,-0.57332754,0.2610326,0.9746051,0.048413306,-0.2630975,0.48076499,0.3962919,0.76577175,0.47161287,Ba/Sq
TCGA-UY-A78L,-0.02280245,-0.054704368,-0.32555318,-0.14717445,0.8107836,0.65065306,0.2788942,0.05782619,-0.2867691,0.09715076,0.27718794,-0.45682842,0.2955608,0.9122218,0.20937914,-0.48221248,0.28549755,0.18379617,0.9121008,0.40213126,Ba/Sq
TCGA-UY-A78P,-0.23082514,0.004925549,-0.3667263,0.011304989,0.5684775,0.7922384,0.6061696,-0.009141445,-0.1453844,-0.15070556,0.32779685,-0.5188988,0.24988872,0.81530166,-0.034859993,-0.1909585,0.4741048,0.38144216,0.6066364,0.42113063,Ba/Sq
TCGA-UY-A8OB,0.12794739,0.18919684,-0.05519489,-0.1877644,0.711694,0.58055276,0.19555116,0.3266955,-0.24459326,-0.26505503,0.33916652,-0.32655603,0.29080987,0.85396576,0.12721473,-0.53301734,0.50788903,0.33452898,0.7207949,0.42909968,Ba/Sq
TCGA-UY-A8OC,-0.04906333,-0.03276205,-0.2596627,-0.2716611,0.9348979,0.7362809,0.16589601,0.19990799,-0.364952,0.02021569,0.23242581,-0.4464726,0.19336396,1.0223978,0.28838706,-0.6333931,0.360736,0.20634139,1.0981804,0.45543557,Ba/Sq
TCGA-UY-A9PB,-0.14023814,-0.037233353,-0.34543186,-8.685887e-05,0.6130571,0.7034435,0.5134499,-0.040818326,-0.16454941,-0.056423374,0.29603603,-0.4955377,0.28427088,0.78909934,0.025753021,-0.23613854,0.38965794,0.29239973,0.66246676,0.4071785,Ba/Sq
TCGA-XF-A8HD,0.093352705,0.1279677,-0.12501438,-0.16694261,0.780301,0.62294054,0.22822991,0.2515198,-0.27994597,-0.17116766,0.32364282,-0.36777222,0.31944537,0.8911611,0.16587839,-0.5460946,0.48068357,0.29279277,0.78375524,0.43526638,Ba/Sq
TCGA-XF-A8HE,-0.85282195,0.17236038,-0.32168847,0.6414803,-0.0013104081,1.347844,1.3898782,-0.36364156,0.08152191,-0.48533827,0.5259828,-0.52434695,0.72345406,0.5116215,-0.72126293,0.35368815,1.2336705,1.0127027,-0.17437382,0.27091938,Ba/Sq
TCGA-XF-A9SJ,-0.23732151,-0.12393699,-0.29611766,-0.25225586,0.9067851,0.8865332,0.31551197,0.053522572,-0.39316913,0.026898071,0.04882244,-0.3928795,0.2233065,0.93346286,0.30234298,-0.5543391,0.4286977,0.1343213,0.9930117,0.47629613,Ba/Sq
TCGA-XF-A9SM,-0.014638934,0.011365846,-0.2940571,-0.27866194,1.1004124,0.88047045,0.21354777,0.2683594,-0.45806378,0.03508605,0.30750892,-0.5118943,0.27800083,1.2114819,0.3483156,-0.7362092,0.44529945,0.28587973,1.1969967,0.53524345,Ba/Sq
TCGA-XF-A9ST,-0.071912244,0.15473808,-0.38982597,-0.0221356,0.81287545,0.8828915,0.5380754,0.1570667,-0.23809332,-0.1695815,0.53302515,-0.6230863,0.28265965,1.0899103,0.027563423,-0.35818666,0.5075111,0.49006277,0.8458915,0.4619919,Ba/Sq
TCGA-XF-A9SX,-0.25598657,0.0134732425,-0.6163282,0.18941033,0.6518438,0.9351715,0.8127357,-0.16433968,-0.21481985,0.030100599,0.53301406,-0.68505377,0.4678039,1.0238239,-0.014276981,-0.1658445,0.3954826,0.45435447,0.7191522,0.4225443,Ba/Sq
TCGA-XF-A9SY,-0.83499056,0.14963217,-0.28997394,0.6543703,-0.12198551,1.1881466,1.3119913,-0.41872418,0.11338802,-0.45473933,0.49268723,-0.46077305,0.642264,0.38649356,-0.72957563,0.3497068,1.1193098,0.96253616,-0.19994317,0.25704214,Ba/Sq
TCGA-XF-A9T2,-0.35826722,-0.29649502,-0.38029397,-0.34973747,1.176049,1.003502,0.28351986,-0.114977255,-0.6284517,0.35179836,-0.23304203,-0.3368767,0.34211153,0.9824947,0.58707047,-0.81476825,0.3441866,-0.10471686,1.2879615,0.408589,Ba/Sq
TCGA-XF-A9T3,-0.064806566,-0.102044195,-0.32106698,-0.19667684,0.81014186,0.6123826,0.24037874,0.029471442,-0.27949494,0.11916943,0.21748364,-0.4446584,0.23598133,0.82628965,0.22770625,-0.52860785,0.21831557,0.08463194,0.96946967,0.41177422,Ba/Sq
TCGA-XF-A9T4,-0.04567648,-0.0012903959,-0.30842257,-0.3347149,1.1816525,0.92754096,0.1859183,0.24968201,-0.5351963,0.08923456,0.24853504,-0.48704684,0.27127343,1.2281609,0.4378372,-0.83894134,0.41064736,0.21448192,1.3163497,0.5516549,Ba/Sq
TCGA-XF-A9T5,-0.07824354,-0.12647502,-0.29885024,-0.25736177,0.89659035,0.65919846,0.16357556,0.044616044,-0.3714965,0.18359973,0.13902894,-0.40106386,0.2486774,0.90342474,0.33853963,-0.641625,0.23513189,0.053017102,1.0826244,0.42700684,Ba/Sq
TCGA-XF-A9T6,-0.2281618,-0.28746206,-0.34090537,-0.033109948,0.4586873,0.45956165,0.40004113,-0.30059516,-0.15787378,0.203972,-0.020172786,-0.31727177,0.334347,0.48793247,0.15907115,-0.24372973,0.20177977,0.026841216,0.60326517,0.29039225,Ba/Sq
TCGA-XF-A9T8,-0.6952854,0.20365758,-0.18722181,0.628064,-0.017238446,1.1761677,1.2219851,-0.30394125,0.19094098,-0.49331176,0.5326898,-0.4872839,0.64582217,0.465427,-0.67420983,0.2615529,1.1961496,0.9795076,-0.18498142,0.32469463,Ba/Sq
TCGA-XF-AAME,-0.24397631,-0.033235624,-0.4630587,0.04471004,0.6737622,0.8720544,0.6560577,-0.030189186,-0.179625,-0.09296281,0.3459087,-0.5965608,0.24650355,0.93432975,0.01746118,-0.23630299,0.4391084,0.39237428,0.7478121,0.44519258,Ba/Sq
TCGA-XF-AAMH,-0.042965014,-0.14871529,-0.34714305,-0.17476742,0.76399446,0.5077125,0.2115376,-0.06634332,-0.3437451,0.2838769,0.19866931,-0.39110768,0.37435812,0.8180282,0.2767234,-0.56013185,0.1581313,0.061287545,0.95519745,0.3311488,Ba/Sq
TCGA-XF-AAMT,-0.23727302,0.39433068,-0.26223204,0.47908086,0.5096934,1.2684983,0.9852545,0.07753439,0.03666062,-0.44672412,0.87374383,-0.69559306,0.6178128,1.1119092,-0.41764963,-0.19919993,1.123466,1.0436096,0.39567685,0.5546652,Ba/Sq
TCGA-XF-AAMW,-0.16926065,0.00039854646,-0.46438438,-0.11013779,1.0347764,1.0393274,0.4853172,0.16722366,-0.40640885,-0.003900312,0.41382974,-0.6518613,0.28755295,1.3114113,0.2251201,-0.5651874,0.4906739,0.3994506,1.1545553,0.5571914,Ba/Sq
TCGA-XF-AAN0,-0.050363857,0.08486746,-0.121233776,-0.04596293,0.5674393,0.6735148,0.38620993,0.17789936,-0.09464076,-0.28565863,0.30847898,-0.41449928,0.2316247,0.777678,-0.031087197,-0.2714102,0.6133922,0.43867475,0.5380479,0.4269814,Ba/Sq
TCGA-XF-AAN2,-0.2681004,-0.10074359,-0.32979786,-0.40850914,1.1752576,1.0104383,0.24783914,0.12213263,-0.5913888,0.118725866,0.032508202,-0.43192452,0.21386988,1.0666212,0.45974335,-0.8341212,0.374941,-0.00061834604,1.3161023,0.47743922,Ba/Sq
TCGA-XF-AAN3,-0.1459512,-0.068250395,-0.5086054,-0.019345134,0.8775191,0.87780064,0.50787115,-0.043388247,-0.34903476,0.15072869,0.35372373,-0.57553405,0.39852977,1.1047122,0.21677506,-0.45379433,0.3412605,0.30123037,0.98889774,0.44516873,Ba/Sq
TCGA-XF-AAN4,-0.12112804,0.27533132,-0.31556857,0.16140002,0.67924154,1.0309743,0.7126328,0.19777432,-0.04029523,-0.32721502,0.7304758,-0.74466074,0.3522687,1.1078893,-0.14478609,-0.2789003,0.7801017,0.78246015,0.67905694,0.53179,Ba/Sq
TCGA-XF-AAN5,-0.28772005,-0.17114808,-0.3777184,-0.1824743,0.83940524,0.8554853,0.42967474,-0.031259127,-0.36450315,0.08561951,0.08697102,-0.44742548,0.26550445,0.8727845,0.24721134,-0.4716493,0.3771589,0.11292394,0.9286194,0.44776225,Ba/Sq
TCGA-YC-A9TC,-1.2191342,0.2889011,-0.37575945,0.97604924,-0.36226687,1.6183039,1.8136845,-0.6595892,0.18965092,-0.5202993,0.6897345,-0.46189666,1.0683861,0.42687857,-1.0403877,0.5324277,1.5432351,1.368868,-0.5072031,0.17968793,Ba/Sq
TCGA-YF-AA3M,-0.1917445,0.05609736,-0.47475833,0.16643956,0.64863497,0.9140594,0.7129953,-0.070757054,-0.15669212,-0.039783046,0.4946878,-0.6338194,0.41692922,1.0073858,-0.02400314,-0.2036306,0.4942088,0.5065996,0.67260826,0.42833018,Ba/Sq
TCGA-ZF-A9RD,-0.12458959,-0.16547425,-0.31406608,-0.2081253,0.8107126,0.58472186,0.21050042,-0.09326886,-0.3527782,0.26791108,0.067062765,-0.36230415,0.31172395,0.7557398,0.3371165,-0.5780098,0.17433585,-0.030339397,0.9684745,0.3619532,Ba/Sq
TCGA-ZF-A9RE,-0.13222937,-0.12064248,-0.39540845,-0.0016071349,0.5546733,0.55067724,0.45201904,-0.18170501,-0.16219708,0.10785782,0.23571119,-0.4410767,0.3464328,0.6410332,0.08739656,-0.25455874,0.22256342,0.15079576,0.66562176,0.32415783,Ba/Sq
TCGA-ZF-A9RF,-0.2810061,-0.19230288,-0.32698247,-0.1605516,0.597792,0.6240745,0.43516546,-0.15923919,-0.24576747,0.039933056,-0.02830107,-0.31478876,0.235077,0.53817165,0.11643626,-0.27065966,0.28310966,0.019828014,0.62839997,0.26497704,Ba/Sq
TCGA-ZF-A9RN,-0.10452846,-0.26522192,-0.24540055,-0.434097,1.2449458,0.70938945,-0.049380362,0.025546804,-0.6678422,0.4698838,-0.20962977,-0.24504283,0.32916912,1.0048028,0.69889,-1.0707979,0.18262075,-0.17536598,1.4426371,0.37082005,Ba/Sq
TCGA-ZF-AA4N,-0.028156802,-0.032597497,-0.2764393,-0.1940939,0.6640291,0.5106251,0.27430668,0.04150611,-0.2197349,0.008716568,0.2780827,-0.4125529,0.2359739,0.7232448,0.13128093,-0.4357794,0.2322335,0.11625049,0.8166977,0.3734811,Ba/Sq
TCGA-ZF-AA4R,-0.294368,-0.09955372,-0.47824508,-0.07435478,0.79246694,0.89706916,0.57156336,-0.11591002,-0.34190774,0.076518655,0.18038133,-0.48576307,0.37396774,0.8974825,0.20554072,-0.36158043,0.37076664,0.18705606,0.82517254,0.4200843,Ba/Sq
TCGA-ZF-AA4V,-0.053836886,-0.1639221,-0.22381777,-0.23980403,0.85400844,0.58741295,0.13899918,0.04312679,-0.33912835,0.14925207,0.03506583,-0.33059293,0.23925304,0.8460293,0.31696412,-0.5825453,0.26966423,0.06651389,0.9675492,0.39354575,Ba/Sq
TCGA-ZF-AA4W,-0.83500904,0.31627297,-0.442493,0.88216275,0.15123795,1.6367223,1.5718567,-0.2903614,0.11952473,-0.55516833,0.8494394,-0.8075863,0.67511505,0.90962887,-0.7823304,0.25265762,1.381958,1.3279951,0.04164721,0.44683397,Ba/Sq
TCGA-ZF-AA53,-0.16066808,-0.13829838,-0.4247865,-0.074351594,0.7390789,0.6425215,0.39901912,-0.16263703,-0.26690683,0.19964115,0.17490321,-0.43910444,0.34271294,0.76940966,0.2144765,-0.4061072,0.19307671,0.085445605,0.8598369,0.34741092,Ba/Sq
TCGA-ZF-AA54,-0.0950754,-0.052942663,-0.46727753,-0.08832624,0.8967764,0.82062757,0.4408857,0.04663524,-0.31296763,0.11354305,0.3794957,-0.58866775,0.34103298,1.0849615,0.22858223,-0.49431187,0.32028925,0.2684329,1.0144322,0.47435457,Ba/Sq
TCGA-ZF-AA56,-0.047547903,-0.12758373,-0.28541744,-0.16825996,0.72909325,0.5124453,0.21018001,-0.028794974,-0.27553535,0.17295595,0.15839168,-0.38057923,0.29397535,0.75890946,0.24976715,-0.4928913,0.2041985,0.08104191,0.87592745,0.34611803,Ba/Sq
TCGA-ZF-AA58,-1.0102996,0.2913671,-0.38312814,1.0420663,-0.23222357,1.5548042,1.7429982,-0.57980067,0.20343398,-0.4753558,0.80582964,-0.61826485,0.9350447,0.5778911,-0.9965137,0.4554668,1.4532056,1.4224132,-0.3540739,0.29360205,Ba/Sq
TCGA-ZF-AA5H,-0.08544724,-0.16231363,-0.23523855,-0.2167454,0.65420973,0.49359584,0.20111147,-0.027419165,-0.23498812,0.09059043,0.07563626,-0.32394367,0.19861324,0.63345456,0.20130914,-0.44934285,0.22876163,0.019927643,0.79328036,0.35699475,Ba/Sq
TCGA-5N-A9KM,-0.21362837,-0.031801954,-0.32011744,0.001529485,0.4294135,0.6303008,0.5327144,-0.1377308,-0.11046554,-0.10445064,0.21472108,-0.37035316,0.2814031,0.52119815,-0.02306053,-0.10677481,0.3674859,0.18260095,0.41619304,0.3334667,LumNS
TCGA-BT-A2LB,-0.26229087,-0.46459377,0.17376368,-0.42150307,0.6372294,0.12355983,-0.19741249,-0.4164241,-0.6500076,0.5613229,-0.6354784,0.3701473,0.5730002,0.15647566,0.6720655,-1.0899647,0.12826642,-0.6174203,0.9011177,0.1408116,LumNS
TCGA-DK-A1AD,-0.31466264,-0.47471732,-0.13425893,-0.12278474,0.24643062,0.064239636,0.26502383,-0.7583147,-0.18544948,0.61776,-0.31233838,0.069581375,0.5636444,0.033653,0.38555375,-0.43817902,-0.0010385066,-0.35164064,0.52596974,0.12457418,LumNS
TCGA-DK-A2I1,-1.0515337,-0.9546776,0.4935873,-0.95177686,1.4336966,0.91844535,-0.32476288,-0.9962753,-1.7668791,1.22303,-2.2274206,1.2191055,1.5956576,-0.095263496,1.7716312,-1.9697268,0.6402106,-1.3589352,1.3101134,-0.15114732,LumNS
TCGA-DK-A3IK,0.21399082,0.28992647,0.4938402,-0.014867425,0.02882323,0.19535044,0.34771085,0.142524,0.28586838,-0.626363,0.27592137,0.123777196,0.51817864,0.15336487,-0.14858948,-0.43077278,0.7425819,0.3353327,-0.03374268,0.41652638,LumNS
TCGA-DK-A3IT,-0.09289195,-0.31996107,0.21428585,-0.33529744,0.39239052,0.09064807,-0.16454816,-0.20152491,-0.39346826,0.15027563,-0.4465136,0.42807543,0.62159,0.09730649,0.42279157,-0.7221908,0.36133248,-0.37572438,0.33074316,0.23414916,LumNS
TCGA-DK-A6B2,0.25204277,0.40547383,0.5315576,-0.28606096,0.4748302,0.37181816,-0.03204307,0.6056386,-0.3355072,-0.81822926,0.11002066,0.3352788,0.6397183,0.49528077,0.12358555,-0.9584417,0.95249826,0.1795784,0.3055226,0.4665205,LumNS
TCGA-E7-A97Q,0.12613139,0.40776873,0.47452188,0.16381258,0.15054923,0.5461769,0.4973709,0.3193724,0.24195905,-0.8183044,0.3878789,-0.03359481,0.5110419,0.45171377,-0.29543716,-0.4117428,1.098815,0.67497134,0.011071366,0.47748148,LumNS
TCGA-FD-A6TA,-0.19198015,-0.41347253,-0.08927862,-0.55649084,1.2230386,0.6501848,-0.13522586,-0.010075353,-0.6854509,0.46123153,-0.57947534,-0.0888008,0.29351613,0.75162613,0.73914135,-1.0586355,0.25663424,-0.322589,1.3659058,0.20144632,LumNS
TCGA-FD-A6TI,-0.26749164,0.085951954,0.37273404,-0.1263371,-0.523672,0.0105143,0.7335329,-0.6699952,0.39369193,-0.31814945,0.024219625,0.47717988,0.989249,-0.5049695,-0.03063231,-0.27442116,0.5560932,0.0094707385,-0.45847306,0.1069233,LumNS
TCGA-GD-A2C5,-0.7165287,-0.71484745,-0.13919964,-0.48149538,0.7735092,0.6778794,0.24530077,-0.84149086,-0.72231215,0.7860568,-1.0184346,0.20743091,0.7215248,-0.037453197,0.8061497,-0.7474021,0.23670562,-0.80518264,0.82816875,0.038941786,LumNS
TCGA-GD-A3OP,-0.49209115,-0.13378017,-0.19698173,0.21204427,-0.37883553,-0.052270263,0.9724525,-1.0967283,0.1805301,0.38749397,0.12258435,-0.08637248,0.7485123,-0.37180617,-0.055439062,0.12207639,-0.08602005,0.09093853,0.07788441,-0.07967596,LumNS
TCGA-GV-A3JV,-0.7588789,-0.36363173,-0.101542965,-0.23835419,-0.13557698,0.341595,0.7381215,-1.047153,-0.16966364,0.38395685,-0.55784106,0.29784566,0.87287164,-0.4577694,0.29638228,-0.104695424,0.25600725,-0.3367712,0.020784937,-0.11579834,LumNS
TCGA-K4-A3WU,0.22087783,0.31720042,0.19984412,-0.106049314,0.4666965,0.47562444,0.27254152,0.40740362,0.04046225,-0.5525583,0.39579576,-0.21848124,0.3143229,0.63432455,-0.050735272,-0.47487462,0.7609866,0.4641713,0.4005399,0.44308645,LumNS
TCGA-S5-A6DX,-0.8674473,-0.72040796,0.3974136,-0.6131294,0.55418456,0.41398415,0.13675915,-1.2016798,-0.9153248,0.8795855,-1.4924383,0.97337186,1.335032,-0.41810176,1.1913781,-1.3099648,0.3933127,-1.0259565,0.641666,-0.07962178,LumNS
TCGA-XF-A8HF,0.20801474,0.31469566,0.47230148,-0.2208136,0.28661487,0.34271133,0.16790736,0.32930169,-0.057221636,-0.7565965,0.06324964,0.23536773,0.61102796,0.24512252,0.007982805,-0.570347,0.861281,0.1925742,0.07012827,0.33989036,LumNS
TCGA-XF-A8HH,-0.052114274,0.72614,0.15202178,0.49324834,0.62766147,1.4189539,0.8491775,0.54246724,-0.0038451254,-0.9511062,0.86971873,-0.4613704,0.67354614,1.2394462,-0.41530854,-0.53111535,1.6152046,1.3166507,0.3244679,0.6447473,LumNS
TCGA-XF-A9SV,0.023968024,0.5762699,0.5854878,0.14662287,0.13738549,0.7661081,0.5706283,0.30711326,0.0454145,-1.0902622,0.26574585,0.20730935,0.88065284,0.2712517,-0.28964177,-0.48296335,1.3985958,0.65370893,-0.2515292,0.39114255,LumNS
TCGA-XF-A9SZ,0.36287966,0.43045032,0.5457433,-0.110427305,0.15581891,0.15088695,0.21691754,0.27453133,0.17089288,-0.6829772,0.3254962,0.23758863,0.55979824,0.23173547,-0.08933413,-0.65617967,0.7106151,0.29444382,0.09938886,0.40546167,LumNS
TCGA-XF-AAMY,-0.49248275,0.052315608,0.028682174,0.043085366,-0.20900536,0.49581403,0.79951835,-0.39440542,0.18572283,-0.3862512,0.07221877,-0.014677722,0.6050091,-0.12851074,-0.32076818,0.07746191,0.70295125,0.32226047,-0.23696242,0.1406327,LumNS
TCGA-ZF-A9R0,0.018808141,0.21929969,0.50624126,-0.30794454,0.029016063,0.16467819,0.30944616,-0.06378614,0.05891973,-0.6437636,-0.12395797,0.4029662,0.71471554,-0.14967468,0.1012885,-0.5343244,0.6696631,-0.08166582,-0.1146931,0.27462423,LumNS
TCGA-2F-A9KO,0.28778085,0.40409732,0.30875576,-0.32445586,0.8279261,0.6021717,0.023869611,0.66242206,-0.41742873,-0.6563596,0.23603472,0.007801026,0.47822884,0.8599807,0.2417118,-0.94572675,0.8915407,0.3318931,0.6631876,0.5313889,LumP
TCGA-2F-A9KP,0.30545446,0.3756566,0.42626864,-0.54804265,1.0059006,0.5090415,-0.21146771,0.7354417,-0.8020256,-0.57887346,-0.06137176,0.3518967,0.6096084,0.8501384,0.48166135,-1.3430669,0.8008501,0.04074212,0.81041205,0.49536198,LumP
TCGA-2F-A9KQ,0.35480618,0.5139326,0.4592559,-0.3324542,0.6748047,0.483384,0.038598664,0.66971505,-0.37638512,-0.8603412,0.23104319,0.17541783,0.56369746,0.6635945,0.14047086,-0.9912626,0.9196959,0.25400868,0.48950773,0.4928459,LumP
TCGA-4Z-AA7O,0.22154649,0.33861125,0.39433312,-0.6566097,1.2398516,0.7109301,-0.24038061,0.693553,-0.991981,-0.46838838,-0.20109868,0.39167237,0.71496964,0.9520644,0.69059753,-1.5411025,0.856682,-0.036313213,0.99233115,0.50719184,LumP
TCGA-4Z-AA7S,0.126852,0.21804167,0.1918359,-0.39654708,0.8367925,0.592852,0.08026565,0.4846221,-0.46304387,-0.47092158,0.07713596,0.0021479204,0.46014467,0.73009026,0.24348637,-0.8166807,0.7264591,0.111385636,0.65591204,0.4569819,LumP
TCGA-4Z-AA7Y,-0.055855785,0.33410567,0.5493007,-1.0103003,1.478347,1.050937,-0.25272316,0.8278729,-1.4010445,-0.65677834,-0.6139691,0.6925249,0.93661004,0.88348293,0.8970003,-1.8558445,1.205198,-0.30132416,1.0425707,0.50290763,LumP
TCGA-4Z-AA83,0.094987184,0.28356147,0.37770525,-0.6113527,1.0649445,0.6859913,-0.10543051,0.59114933,-0.86035365,-0.53132933,-0.23353925,0.3021322,0.59964573,0.7568468,0.5020617,-1.2338295,0.85329705,-0.055807807,0.8061334,0.43629557,LumP
TCGA-4Z-AA89,0.21191998,0.4058903,0.4539683,-0.5767963,1.0113899,0.6290487,-0.14098388,0.76822317,-0.80562663,-0.71186846,-0.06743191,0.30428332,0.6076206,0.8457459,0.45915058,-1.3245317,0.9505566,0.06662739,0.81706226,0.55064595,LumP
TCGA-BT-A20P,0.057654005,0.07475744,0.46923774,-0.7310564,0.8175714,0.406557,-0.2570878,0.33137915,-0.80321896,-0.3442171,-0.45102417,0.6412277,0.80298096,0.36581105,0.58024764,-1.2982117,0.7113047,-0.42834055,0.54715073,0.32205096,LumP
TCGA-BT-A20T,0.07257467,0.09511794,0.3482436,-0.59828717,0.75044817,0.34741348,-0.20971859,0.42317113,-0.6566881,-0.3549708,-0.23189002,0.37702,0.56012475,0.5004606,0.41197607,-1.0922592,0.6252208,-0.254687,0.62196535,0.392573,LumP
TCGA-BT-A3PH,0.20602043,0.11923571,0.30365872,-0.4938724,0.6988735,0.2292507,-0.16471028,0.30632713,-0.5367697,-0.25862312,-0.08508666,0.32556993,0.52105546,0.49287137,0.39258257,-1.0532243,0.44798586,-0.19645384,0.6077062,0.4132248,LumP
TCGA-BT-A42C,-0.146687,0.09130387,0.5170688,-0.85968703,1.0436232,0.75056815,-0.22127399,0.34536344,-1.0696701,-0.40915954,-0.7797608,0.7546533,0.9151151,0.3822007,0.7773416,-1.4605287,0.89391553,-0.53669643,0.6658945,0.2436696,LumP
TCGA-C4-A0F6,-0.020555198,0.13455246,0.45691463,-0.70085984,0.8050785,0.55005366,-0.12430769,0.31216437,-0.78977686,-0.4478264,-0.5151373,0.6266319,0.79088163,0.31199527,0.5864427,-1.1849554,0.76700574,-0.3913084,0.46920124,0.3148767,LumP
TCGA-CF-A1HR,-0.04793899,0.10401146,0.43070224,-0.7124787,0.78598046,0.5143796,-0.09097955,0.28995255,-0.7633667,-0.44099373,-0.5004259,0.5798726,0.7359499,0.24619642,0.52416,-1.1466088,0.7262431,-0.44464427,0.44868663,0.31115216,LumP
TCGA-CF-A27C,0.22544502,0.36785328,0.50167984,-0.74308205,1.0658375,0.48099178,-0.31520426,0.7139132,-0.9976239,-0.554051,-0.20636728,0.54150784,0.66264576,0.7734543,0.606418,-1.6278749,0.7566611,-0.22947454,0.9190119,0.5030045,LumP
TCGA-CF-A3MF,-0.073938295,0.15054108,0.5037396,-0.96972334,1.3965,0.7846319,-0.4228811,0.5948684,-1.3779268,-0.29780453,-0.74816394,0.7610737,0.8694768,0.7455063,1.0237949,-1.945232,0.8717043,-0.5130052,1.160403,0.38208768,LumP
TCGA-CF-A3MG,-0.046395022,-0.1636501,0.3430819,-0.63399506,0.9692849,0.27147672,-0.3623529,0.0041510165,-0.9442519,0.2638545,-0.63836634,0.6078233,0.7844723,0.41366035,0.84181726,-1.5163459,0.3478046,-0.599083,0.9567627,0.25031382,LumP
TCGA-CF-A3MH,0.048461087,0.2315384,0.37685016,-0.4976403,0.51875234,0.37452278,0.008119121,0.3121299,-0.43864357,-0.57857734,-0.15481737,0.29888517,0.5321636,0.25298035,0.23339996,-0.8121973,0.6401051,-0.18118268,0.38283944,0.3032663,LumP
TCGA-CF-A3MI,-0.24169616,-0.22536305,0.2701153,-0.786541,1.0894032,0.62810475,-0.2258167,0.06401324,-0.9548849,0.09958942,-0.839395,0.5338383,0.6800914,0.34387127,0.85048187,-1.340994,0.5598224,-0.62935823,0.8914895,0.24468814,LumP
TCGA-CF-A47S,-0.15943913,0.2955141,0.48428804,-0.9063975,1.3777398,1.0856314,-0.120536745,0.6727402,-1.2949549,-0.65735894,-0.65527254,0.63231486,0.87314564,0.7288499,0.78958595,-1.5906662,1.1767607,-0.28564584,0.88795453,0.4129724,LumP
TCGA-CF-A47T,0.23955156,0.39230388,0.44879842,-0.48233944,0.91223925,0.54690117,-0.1166839,0.69000065,-0.7165948,-0.684586,-0.041684177,0.27622724,0.5360292,0.78046525,0.34214708,-1.2035985,0.8671296,0.092931725,0.7504473,0.4981389,LumP
TCGA-CF-A47V,0.13830853,0.40528256,0.56821495,-0.66061324,1.0413053,0.67199403,-0.20374507,0.75506485,-0.9699311,-0.7521624,-0.281009,0.53121424,0.78734255,0.72545874,0.5206115,-1.457849,1.0420017,-0.08982087,0.73807967,0.47813362,LumP
TCGA-CF-A47W,0.2677468,0.31204242,0.4447027,-0.48740178,0.7022527,0.31288427,-0.14566335,0.53263485,-0.5733241,-0.58508265,-0.05109126,0.37586522,0.58952796,0.5263729,0.33489937,-1.1047262,0.7040766,-0.0653132,0.52749693,0.44091082,LumP
TCGA-CF-A47X,-0.06741364,0.08539292,0.37464824,-0.6811459,0.93890506,0.6463137,-0.1123364,0.3970345,-0.84199834,-0.4087907,-0.48660305,0.45687962,0.63554716,0.48444548,0.5444772,-1.2053701,0.78762144,-0.29754972,0.68022776,0.37871116,LumP
TCGA-CF-A47Y,0.06896592,0.364829,0.52834165,-0.6817609,0.9982604,0.729273,-0.12602627,0.6646117,-0.9038551,-0.74465805,-0.35787806,0.5398076,0.80943245,0.6027248,0.57037044,-1.3460711,1.0484262,-0.13080305,0.630056,0.44045722,LumP
TCGA-CF-A5U8,-0.0029788818,0.19801484,0.34482628,-0.72517455,1.223624,0.7918497,-0.16055009,0.55257916,-1.0494933,-0.42362344,-0.46360597,0.40006036,0.59060264,0.7747129,0.67243445,-1.4142118,0.8255996,-0.19119588,0.9573977,0.41912267,LumP
TCGA-CF-A5UA,0.02968239,0.30892712,0.46796,-0.7104927,1.1639465,0.8127889,-0.13469154,0.6885631,-1.0520495,-0.6366093,-0.41289878,0.50959164,0.73393583,0.73061955,0.5807084,-1.4287264,1.0152819,-0.14785933,0.79186225,0.44169718,LumP
TCGA-CF-A7I0,0.16240884,0.2691297,0.41542995,-0.55936766,0.85640174,0.5025664,-0.12994933,0.56515205,-0.6957554,-0.5608185,-0.1613332,0.35794395,0.6275068,0.5962732,0.3662575,-1.0954374,0.8251883,-0.07086582,0.5894556,0.4264738,LumP
TCGA-CF-A8HX,0.20274317,0.36455834,0.51798654,-0.51807714,0.6959924,0.42257246,-0.062044397,0.5452086,-0.6063197,-0.7528661,-0.121508755,0.42747074,0.6900383,0.45616212,0.29707062,-1.0931277,0.84032136,-0.07620343,0.46030712,0.38775277,LumP
TCGA-CF-A8HY,0.29489133,0.36996126,0.43581957,-0.5372277,0.9242361,0.49555248,-0.15807816,0.668504,-0.7162808,-0.61632174,-0.07105251,0.37160993,0.6500989,0.71310675,0.4170318,-1.2308679,0.84263676,0.020833336,0.65379226,0.46287096,LumP
TCGA-CF-A9FF,0.30502272,0.44501418,0.5742168,-0.5417218,0.8430343,0.5011109,-0.14312857,0.6613159,-0.72280407,-0.7939358,-0.1286816,0.53715926,0.81102103,0.5920514,0.41132113,-1.2783817,0.9714795,-0.01917594,0.49695888,0.432927,LumP
TCGA-CF-A9FH,0.07684837,0.28990752,0.5701306,-0.754715,0.9629677,0.6279346,-0.20442632,0.54212606,-0.9776505,-0.6112174,-0.4482384,0.67981225,0.8975569,0.5377568,0.63917303,-1.4669057,0.9437352,-0.26925775,0.6359407,0.39235812,LumP
TCGA-CF-A9FL,0.48417443,0.7853709,0.64518577,-0.35216552,0.8089397,0.65845066,-0.0045653433,1.0371103,-0.48558903,-1.1642451,0.4041265,0.2255093,0.66281533,0.95502853,0.18520516,-1.3366894,1.2424006,0.5193646,0.66492355,0.64220095,LumP
TCGA-CF-A9FM,0.19463924,0.5278255,0.68411833,-0.7418082,1.1793422,0.788472,-0.23147604,0.836033,-1.1374174,-0.8624794,-0.32719266,0.66571337,0.9310419,0.8126602,0.6598965,-1.7123312,1.1666806,-0.09935356,0.81500065,0.48669183,LumP
TCGA-CU-A0YO,0.17589703,0.39254826,0.65577984,-0.7743474,0.8298275,0.44827622,-0.20111349,0.5773519,-0.8869581,-0.72545606,-0.32614473,0.756776,0.9343436,0.3857309,0.5795959,-1.5296185,0.86557746,-0.36734283,0.5314646,0.38872337,LumP
TCGA-CU-A3YL,-0.0875127,-0.1553627,0.30080357,-0.5342259,0.7171041,0.28008816,-0.14971498,-0.067500025,-0.67390186,0.036714017,-0.5747493,0.5034802,0.6305221,0.19167146,0.5697392,-1.0825171,0.3802526,-0.5380551,0.59817123,0.20717977,LumP
TCGA-CU-A5W6,0.39087087,0.50536,0.52885455,-0.47511232,0.8945876,0.5654842,-0.1273975,0.86868846,-0.62957084,-0.88232994,0.11052131,0.34072554,0.72245836,0.8422377,0.3432495,-1.2376359,1.0940311,0.22831732,0.5966282,0.5675189,LumP
TCGA-DK-A1A7,0.36019278,0.3994094,0.61279225,-0.37154585,0.33317995,0.08644658,-0.04846829,0.40951338,-0.21343023,-0.73939073,0.07103323,0.53073823,0.728614,0.25829738,0.23645681,-1.025966,0.7103211,-0.03306038,0.20844635,0.41720614,LumP
TCGA-DK-A1AA,0.2947006,0.36001682,0.50433195,-0.7574423,1.2672774,0.6308804,-0.39634565,0.8075272,-1.0953802,-0.5204791,-0.2388807,0.55524254,0.70099914,0.97917974,0.75819993,-1.7756937,0.8775044,-0.103816636,1.071106,0.53448665,LumP
TCGA-DK-A1AG,-0.070231885,0.07808921,0.5804652,-0.7681896,0.927702,0.53481287,-0.30124402,0.257385,-1.035699,-0.32151002,-0.7396825,0.8933097,1.0038407,0.29977608,0.81007326,-1.5344665,0.8029656,-0.57754695,0.5805715,0.28454837,LumP
TCGA-DK-A3IS,-0.117583364,0.24396633,0.67836416,-0.749937,0.5021578,0.46105766,0.020165287,0.09101768,-0.65066355,-0.6500089,-0.6134524,0.93387973,1.1192362,-0.13704641,0.5803511,-1.193217,0.8633118,-0.6066533,0.033777907,0.24059376,LumP
TCGA-DK-A3X1,-0.043071125,-0.0927359,0.2757523,-0.79793954,1.3801377,0.6293395,-0.43646827,0.31580994,-1.1588702,0.16229843,-0.6577512,0.47982222,0.7321592,0.7846503,1.0209795,-1.7435673,0.5459622,-0.4580657,1.3216803,0.3152976,LumP
TCGA-DK-A6AV,0.14238712,0.30320293,0.36237672,-0.6919273,1.1399258,0.6315653,-0.1963585,0.64395726,-0.93571174,-0.45582706,-0.18854761,0.29733527,0.5523844,0.85439646,0.58283925,-1.4427882,0.72775906,-0.12152941,1.0255545,0.48242098,LumP
TCGA-DK-A6AW,0.28095314,0.5430923,0.7404858,-0.4340502,0.36611095,0.36467138,0.12915963,0.44828698,-0.26538575,-1.0226358,-0.037602074,0.5773075,0.9170518,0.16774082,0.19739157,-1.0318174,0.99926645,0.010177769,0.07958541,0.3225059,LumP
TCGA-DK-A6B0,-0.015540268,0.23607393,0.50309986,-0.80878377,1.110618,0.7823245,-0.15459162,0.5152061,-1.0677147,-0.56067884,-0.5926427,0.6784457,0.87161934,0.5408,0.7084706,-1.4555554,0.96712613,-0.33115816,0.68242466,0.3519755,LumP
TCGA-DK-A6B6,0.007285551,0.06555088,0.30402488,-0.46083423,0.6353489,0.4391607,-9.1448426e-05,0.23993304,-0.50850743,-0.39593905,-0.31421673,0.32088727,0.52565455,0.33313137,0.31478426,-0.77218276,0.64093477,-0.17663136,0.38530418,0.30228952,LumP
TCGA-DK-AA6P,0.15948588,0.3675534,0.77331483,-0.6423956,0.4173628,0.2673166,-0.08747272,0.29949638,-0.5155299,-0.8055688,-0.33357415,0.904373,1.1199002,0.04083281,0.4856355,-1.2767029,0.9193042,-0.35781717,0.06944957,0.34380054,LumP
TCGA-DK-AA6X,-0.025849089,0.10911934,0.4267631,-0.9031998,1.2517898,0.80782825,-0.2658625,0.50629914,-1.1198728,-0.3740508,-0.6612511,0.61456054,0.81625795,0.629912,0.85671246,-1.5710759,0.9197481,-0.3683256,0.89302963,0.3857811,LumP
TCGA-DK-AA71,0.41209316,0.42547852,0.5630869,-0.51619506,0.60032403,0.17479339,-0.16694641,0.57274187,-0.5066432,-0.7124814,0.04566843,0.5246005,0.6986953,0.4447817,0.32212344,-1.2141038,0.6803139,-0.099461325,0.44196847,0.41630608,LumP
TCGA-DK-AA76,-0.91267,0.9905665,1.0340222,0.31948832,-0.58468866,1.5824856,1.7197628,-0.2503442,0.23013543,-1.8085417,0.08866569,0.78204596,2.152898,-0.38408923,-0.64111435,-0.36570784,2.5745885,1.1356647,-1.2395567,0.19108494,LumP
TCGA-DK-AA77,-0.38247263,-0.2414797,0.3208067,-0.9565499,1.5553776,1.0217488,-0.3811461,0.21593931,-1.3918906,0.1585186,-1.1645143,0.62777036,0.8365505,0.65434813,1.1827095,-1.7350799,0.81785583,-0.6383488,1.3041105,0.22184741,LumP
TCGA-E5-A4U1,-0.27849802,1.0995792,1.162145,0.39430398,-0.3518022,1.1514959,1.2756842,0.074226215,0.42277828,-1.7686503,0.36674222,0.57994205,1.6619148,-0.07151743,-0.571041,-0.6023735,2.2107363,1.078231,-0.85806143,0.3874994,LumP
TCGA-E7-A3Y1,0.20481071,0.23730384,0.20139731,-0.61091655,1.146284,0.6207332,-0.12759423,0.627555,-0.7784785,-0.3238101,-0.018945381,0.07030018,0.43432838,0.9743372,0.5721487,-1.3124324,0.6184139,0.027122192,1.0943465,0.5365591,LumP
TCGA-E7-A4XJ,0.24499957,0.25817388,0.34714133,-0.4547154,0.84229165,0.4339867,-0.1412538,0.5120982,-0.63017774,-0.43817437,-0.06464196,0.26122123,0.51697016,0.71596,0.41755065,-1.1295252,0.6688113,0.017397322,0.70653737,0.48111498,LumP
TCGA-E7-A519,0.20607677,0.41197842,0.4254536,-0.6445,1.2430657,0.77858627,-0.16181204,0.8394321,-0.98752594,-0.6479786,-0.13916163,0.3166353,0.61273944,1.0110618,0.5882634,-1.501201,0.9632847,0.058547042,1.0030551,0.5381635,LumP
TCGA-E7-A541,-0.13675731,-0.046907082,0.40183794,-0.8241049,1.0795593,0.6770371,-0.26429746,0.28714097,-1.0127414,-0.19350359,-0.75327843,0.6432616,0.82387465,0.40596563,0.7819811,-1.3759972,0.79607606,-0.4814539,0.74669087,0.27167436,LumP
TCGA-E7-A5KE,0.1231004,0.27723926,0.5687747,-0.7447496,0.8298365,0.44901043,-0.21352506,0.4819483,-0.86859286,-0.57356936,-0.3809086,0.72214705,0.8815919,0.36258775,0.523556,-1.3781677,0.8025269,-0.38541502,0.4946691,0.30992717,LumP
TCGA-E7-A5KF,0.056847006,0.25105417,0.43898854,-0.7057277,1.0574422,0.66172147,-0.16099685,0.52916384,-0.95693123,-0.5065144,-0.3830481,0.48236912,0.6942948,0.64837277,0.5824343,-1.3769387,0.82712436,-0.2251505,0.7932961,0.39011937,LumP
TCGA-E7-A677,0.24628903,0.548712,0.5513637,-0.6798705,1.2765822,0.84932697,-0.1727185,0.95404005,-1.0754613,-0.8582872,-0.18403581,0.44622678,0.72575814,0.9921069,0.5802208,-1.6225007,1.1447377,0.10069602,0.96254677,0.52247953,LumP
TCGA-E7-A678,0.07392402,0.2751664,0.5572223,-0.7683609,0.7894456,0.46695507,-0.13824666,0.43363926,-0.83315575,-0.60203177,-0.3970612,0.6838854,0.8553398,0.28754875,0.533062,-1.3484987,0.7859617,-0.4256945,0.47286984,0.31823242,LumP
TCGA-E7-A6MF,0.037777714,0.24025227,0.49420497,-0.73156226,0.97836137,0.6783238,-0.1348671,0.46400228,-0.92737734,-0.57293934,-0.4925642,0.59206903,0.8395469,0.50915587,0.6185839,-1.3121724,0.9357789,-0.24060407,0.59510756,0.34650028,LumP
TCGA-E7-A7DU,0.59379286,1.1694745,1.0426933,0.008532375,0.4899039,0.8456763,0.39993328,0.91047835,-0.0039766207,-1.6238244,0.60571766,0.36195278,1.0028704,0.7442484,-0.07674636,-1.2893006,1.7382135,0.90032464,0.16255927,0.6742517,LumP
TCGA-E7-A7PW,-0.03487895,-0.19547844,0.17064036,-0.6585235,1.1211543,0.4735551,-0.25289938,0.1024196,-0.9159101,0.26740915,-0.55287284,0.37270904,0.6961343,0.67256,0.9024669,-1.4450492,0.40297896,-0.4281097,1.1021187,0.3273967,LumP
TCGA-E7-A8O7,-0.2960575,0.18902071,0.5180525,-0.76918846,0.67849517,0.8040668,0.19292036,0.16378403,-0.71803313,-0.71243453,-0.6890421,0.6387291,0.91851526,-0.02923501,0.4855599,-0.9850405,0.986034,-0.50248915,0.18001723,0.21738933,LumP
TCGA-E7-A8O8,-0.11725478,0.027303472,0.28369546,-0.7461537,1.1167884,0.79057395,-0.0987394,0.3864213,-0.9018612,-0.32496703,-0.56746817,0.37320185,0.57637596,0.55108213,0.62369764,-1.1991637,0.79136044,-0.30073392,0.8293569,0.34040797,LumP
TCGA-FD-A3NA,-0.10755189,-0.20379302,0.2528551,-0.5884621,0.78560627,0.2979624,-0.20790964,-0.06678266,-0.7361445,0.21223007,-0.5444719,0.44110912,0.7029769,0.3150427,0.6957885,-1.201039,0.33377033,-0.53087014,0.8035164,0.22166835,LumP
TCGA-FD-A43X,0.0900657,0.08850218,0.36563867,-0.6512694,1.0618027,0.4518817,-0.35183248,0.37748292,-0.95126784,-0.12882188,-0.43650797,0.5377014,0.749756,0.64334714,0.7114819,-1.4554938,0.60505414,-0.31817544,0.8981359,0.31467527,LumP
TCGA-FD-A5BR,0.30537918,0.3681395,0.5923282,-0.55571973,0.54166865,0.2539099,-0.10262872,0.5104271,-0.4780873,-0.7442042,-0.051399697,0.58504385,0.83262664,0.31007147,0.35040754,-1.1735543,0.8249422,-0.14134297,0.28764036,0.45028758,LumP
TCGA-FD-A5BV,0.10617773,0.07867077,0.37005985,-0.8424484,1.4232339,0.6964719,-0.39809558,0.5177562,-1.1927205,-0.11415973,-0.56278765,0.52925694,0.7529635,0.85010886,0.9332994,-1.7958155,0.7057937,-0.33580706,1.2464976,0.39222613,LumP
TCGA-FD-A62O,0.1258697,0.32314575,0.5297027,-0.8498156,1.2187071,0.70952505,-0.2871173,0.6847384,-1.1518717,-0.5555032,-0.45567065,0.6622979,0.8525145,0.7414881,0.78766,-1.7096893,0.9310487,-0.27403945,0.9113045,0.4586478,LumP
TCGA-FD-A6TE,0.15167964,-0.013951227,0.16813597,-0.52096707,0.93850064,0.28556457,-0.30772892,0.23365876,-0.62981826,0.092565924,-0.124242045,0.19384348,0.5215293,0.6840832,0.61724174,-1.251259,0.31512576,-0.2607556,1.0099792,0.39513168,LumP
TCGA-FJ-A3ZE,0.19443163,0.18683432,0.46883366,-0.5853431,0.62444746,0.21891785,-0.22232795,0.3646807,-0.6336358,-0.4166714,-0.19529164,0.5928788,0.7190418,0.3512419,0.4630266,-1.2196567,0.5957214,-0.29591945,0.45374426,0.4074881,LumP
TCGA-FT-A3EE,0.12695806,0.21562149,0.39908734,-0.49832788,0.68161225,0.41828093,-0.066337764,0.47699544,-0.5480273,-0.58103955,-0.15131094,0.33968127,0.5958675,0.45477387,0.29585037,-0.95318586,0.77813417,-0.06973494,0.454149,0.39826918,LumP
TCGA-G2-A2EC,-1.7779467,0.0579668,-0.7736179,0.8655196,-1.1928787,0.82045263,2.3616014,-1.8549546,0.22663023,0.43658286,0.43646643,-0.2073222,1.5530138,-0.552436,-0.71923316,0.7193858,0.5792473,1.1042325,-0.5399089,-0.40116233,LumP
TCGA-G2-A2EK,0.35904166,0.94713354,1.0169208,-0.15036297,0.3434073,0.74844015,0.3468917,0.6858469,-0.15356222,-1.5728409,0.23650771,0.5956259,1.1982,0.2972536,-0.046221137,-1.0703425,1.6717467,0.5341399,-0.15928435,0.439112,LumP
TCGA-G2-A2EO,0.10533489,0.18597744,0.6076341,-0.8300129,0.812891,0.3569229,-0.29574227,0.32794014,-0.9191599,-0.4252513,-0.5161984,0.88537925,0.9929633,0.24261495,0.69261146,-1.5433844,0.72740084,-0.56439877,0.49106827,0.27781865,LumP
TCGA-G2-A3IE,0.06093807,0.08464226,0.49926883,-0.67133653,0.59478694,0.299229,-0.1301054,0.1740371,-0.6279945,-0.40206295,-0.44225383,0.69871837,0.805993,0.14269607,0.5217099,-1.1691085,0.62694263,-0.48233205,0.3087134,0.3159948,LumP
TCGA-G2-AA3B,0.4232212,0.68085515,0.7695422,-0.120795116,0.2400979,0.38514817,0.27953357,0.52405953,0.07020119,-1.1289645,0.33659413,0.35357666,0.79221827,0.33561334,-0.06276497,-0.8749629,1.114914,0.42268932,0.05211813,0.4746027,LumP
TCGA-G2-AA3D,0.05340853,0.12289594,0.47005162,-0.69132733,0.7919303,0.4119608,-0.23515043,0.3836687,-0.79857177,-0.4005723,-0.37053278,0.6133958,0.77701396,0.39766508,0.526876,-1.2905312,0.7390097,-0.36854392,0.5444809,0.37378055,LumP
TCGA-GC-A3BM,0.03423336,0.02137281,0.3054687,-0.821435,1.2721907,0.687594,-0.30664402,0.4587557,-1.0343506,-0.15094377,-0.5670404,0.42851084,0.60356426,0.74683285,0.84656966,-1.5556543,0.6801109,-0.32680175,1.1091739,0.38998005,LumP
TCGA-GC-A3RB,0.048009504,0.25887227,0.46717778,-0.7510393,0.93544227,0.5996815,-0.12722608,0.5298878,-0.88356173,-0.56912595,-0.35622808,0.51976436,0.7092987,0.53264844,0.5673976,-1.3634139,0.8113374,-0.2763897,0.701863,0.39840156,LumP
TCGA-GC-A3RD,-0.23526739,0.20752816,0.51458794,-0.8566631,1.0600356,0.99486524,-0.0023168921,0.47839686,-1.0586659,-0.69141877,-0.715592,0.67400646,0.9640734,0.4007264,0.7004607,-1.326665,1.1642011,-0.36110896,0.5416855,0.34345728,LumP
TCGA-GD-A6C6,0.012662217,0.09993978,0.49247286,-0.72322166,0.77216125,0.4489512,-0.1862495,0.27552438,-0.7967636,-0.39382297,-0.52752554,0.67349356,0.8424742,0.25528094,0.6041621,-1.2475742,0.73194915,-0.440764,0.4569448,0.30756465,LumP
TCGA-GU-A42R,0.0034593977,0.11502455,0.4780132,-0.7799797,1.0334648,0.6254106,-0.23200715,0.41426554,-1.0118304,-0.38926524,-0.61793417,0.70196646,0.8519889,0.47764394,0.72308135,-1.4507467,0.8367283,-0.40922195,0.65789723,0.348989,LumP
TCGA-GU-A763,0.1697147,0.6956129,0.7773976,-0.17397088,0.2812885,0.6729191,0.39784566,0.4863036,-0.046301156,-1.2345579,0.16284057,0.35038453,0.93907034,0.27879837,-0.020070985,-0.83888406,1.3995018,0.46806365,-0.042896233,0.47762525,LumP
TCGA-GU-A767,0.11591455,0.276837,0.5262951,-0.7299962,0.8389823,0.44484538,-0.16408294,0.46130523,-0.83111095,-0.56693923,-0.33271372,0.6489326,0.79741085,0.383356,0.5506201,-1.3811134,0.7600476,-0.39238214,0.5418979,0.40008736,LumP
TCGA-GV-A3JW,0.047125176,0.27211815,0.5421814,-0.54628384,0.5927162,0.48348576,0.016301244,0.3671978,-0.5677992,-0.7365029,-0.30694053,0.5577951,0.7764681,0.20869035,0.3357893,-1.0341473,0.87737846,-0.25360063,0.25247827,0.36340076,LumP
TCGA-GV-A3QF,-1.048865,0.43359625,0.06498587,0.8031406,-0.58270144,1.3523053,1.7551407,-0.6288992,0.33275938,-0.82613784,0.54451275,-0.06964155,1.2534623,0.09888326,-0.99303603,0.3187067,1.6587477,1.2614741,-0.7237377,0.17333244,LumP
TCGA-GV-A3QI,-0.088330835,-0.122423194,0.37737775,-0.929643,1.3089159,0.57678777,-0.46940187,0.22281957,-1.2088649,0.17936908,-0.8024132,0.671924,0.8641091,0.58415914,1.0980235,-1.8176597,0.5722437,-0.6275599,1.2078431,0.28092536,LumP
TCGA-GV-A3QK,-0.053831417,0.028707564,0.43722537,-0.735654,0.86174375,0.5291672,-0.19954434,0.2363348,-0.83619994,-0.30482292,-0.5681039,0.62564427,0.79162353,0.30563045,0.5921279,-1.2234422,0.741402,-0.46776354,0.5385586,0.29278168,LumP
TCGA-GV-A6ZA,-0.28457478,-0.08886689,0.42341512,-0.7616636,0.78875846,0.57930976,-0.1202763,0.0074044913,-0.83919483,-0.16673213,-0.8462179,0.7296312,0.8588259,0.06305438,0.74094117,-1.2085729,0.67354906,-0.67018765,0.48458183,0.19347185,LumP
TCGA-H4-A2HQ,-0.07870373,0.13608871,0.4861334,-0.7447887,0.8214473,0.61582595,-0.08341205,0.28584516,-0.8349743,-0.51053727,-0.60778064,0.72974825,0.91894656,0.20955417,0.6176063,-1.1785915,0.8764964,-0.45516008,0.3381734,0.2894138,LumP
TCGA-HQ-A2OE,0.17117375,0.19812126,0.413286,-0.57720387,0.76060754,0.38165092,-0.18068504,0.4411513,-0.6632277,-0.4517069,-0.19027266,0.4612201,0.6457653,0.5051217,0.42881814,-1.158076,0.68566173,-0.18558303,0.55483675,0.39425892,LumP
TCGA-K4-A54R,0.2898888,0.74318475,0.4701021,-0.15887974,0.90263087,1.0683573,0.23705636,1.0154434,-0.38967776,-1.169927,0.48294365,0.021851473,0.6986064,1.1742601,0.07613917,-1.0827646,1.5825689,0.89873785,0.57972986,0.66898495,LumP
TCGA-KQ-A41N,-0.10593358,0.15819041,0.39394507,-0.6873977,0.9447773,0.83626306,0.010825686,0.48743495,-0.79460967,-0.61079377,-0.4343795,0.41028607,0.7040229,0.53903866,0.52132,-1.0979129,1.0118504,-0.15376025,0.5966921,0.40827048,LumP
TCGA-KQ-A41O,0.28119135,0.42211437,0.35322586,-0.5486733,1.0801336,0.59979224,-0.12817234,0.773615,-0.78342277,-0.5928835,0.07444375,0.13490729,0.4323865,0.9992255,0.46705756,-1.3687633,0.7561031,0.118730135,1.036737,0.5875258,LumP
TCGA-KQ-A41P,0.149824,0.038343087,0.1931508,-0.34116673,0.67099273,0.28868273,-0.09189628,0.22823215,-0.43464845,-0.18070635,-0.06999714,0.16400711,0.45613417,0.52682257,0.32756767,-0.80502284,0.46401063,-0.07264189,0.54890895,0.36833465,LumP
TCGA-KQ-A41R,-0.11805098,-0.084774785,0.5242054,-0.8501243,1.115356,0.5447162,-0.49502483,0.2381857,-1.1959957,-0.026950903,-0.91159064,0.93999195,1.0531833,0.43242115,1.0292115,-1.7398279,0.7742034,-0.6420615,0.8437108,0.27515677,LumP
TCGA-LT-A8JT,-0.17746113,-0.09471372,0.2874845,-0.7982398,1.1540029,0.80330145,-0.17130822,0.3061432,-0.9744123,-0.1765064,-0.73938066,0.46842438,0.662994,0.49312064,0.7472935,-1.2519586,0.7915341,-0.40431708,0.80338705,0.3053126,LumP
TCGA-S5-AA26,-0.13812418,-0.002573043,0.2760942,-0.8824584,1.5780461,1.0361769,-0.27935004,0.496797,-1.284692,-0.13233417,-0.75106454,0.42107415,0.65148056,0.90458155,0.99001086,-1.6879314,0.8405625,-0.33119333,1.3318319,0.37411943,LumP
TCGA-UY-A78M,0.1376976,0.24225567,0.49721667,-0.7631554,1.1238848,0.6203432,-0.34076673,0.64913404,-1.0420492,-0.47079927,-0.3945963,0.59465885,0.7906077,0.7818854,0.7593107,-1.630598,0.9013184,-0.18882647,0.9125761,0.50879496,LumP
TCGA-UY-A78N,-0.013525147,0.29295534,0.649066,-0.65206766,0.57902247,0.460505,-0.06324065,0.27667445,-0.7046282,-0.711489,-0.4616251,0.8156558,1.0224342,0.08715312,0.46197882,-1.1939603,0.91816694,-0.40557182,0.16771205,0.29218882,LumP
TCGA-UY-A78O,0.4505473,0.67085403,0.65018195,-0.3281815,0.49984628,0.4554966,0.07637802,0.74735725,-0.22733167,-1.1117857,0.3038293,0.32318747,0.7487587,0.5642656,0.13112435,-1.0700394,1.1225944,0.3593703,0.29728743,0.5171946,LumP
TCGA-UY-A9PA,0.1650456,0.27865797,0.34088036,-0.52156675,0.85134745,0.4945981,-0.08553022,0.5678383,-0.63843286,-0.53599983,-0.053780828,0.20406888,0.47626898,0.6735858,0.32527024,-1.0633055,0.7306184,-0.004074909,0.7131497,0.4485954,LumP
TCGA-UY-A9PF,-0.13885501,-0.012794241,0.28072944,-0.7235671,0.975676,0.71916604,-0.057163596,0.30303755,-0.78864276,-0.3175568,-0.55877435,0.3659271,0.6010915,0.40933043,0.5727687,-1.0429375,0.7755768,-0.316154,0.6510255,0.33490145,LumP
TCGA-UY-A9PH,0.0033066534,0.25462943,0.6225922,-0.7935922,0.849481,0.5624459,-0.1413236,0.3849723,-0.94282615,-0.64978886,-0.60509,0.86667997,1.0345645,0.18992373,0.61419034,-1.393395,0.93544275,-0.51942825,0.33503303,0.28987503,LumP
TCGA-XF-A8HB,0.22432622,0.40693355,0.58314747,-0.5691864,0.7262507,0.45886087,-0.08463113,0.5776775,-0.6732813,-0.7997471,-0.16125926,0.49337393,0.7399494,0.4907066,0.33562815,-1.2118329,0.8645276,-0.107527666,0.5121484,0.3631242,LumP
TCGA-XF-A8HG,0.04906835,0.08355473,0.41140583,-0.5859513,0.6005462,0.33185527,-0.12511516,0.22680923,-0.5731743,-0.38603705,-0.33073243,0.4807241,0.64398587,0.29331863,0.4353524,-1.0328863,0.60597104,-0.3245318,0.45087233,0.333099,LumP
TCGA-XF-A8HI,0.050904553,0.30263513,0.54314846,-0.8106782,0.91975373,0.5813535,-0.15453449,0.51756155,-0.9152541,-0.6167324,-0.36694047,0.6300168,0.8090059,0.43661758,0.58565915,-1.4573647,0.8391014,-0.3908518,0.6478535,0.38239765,LumP
TCGA-XF-A9SH,0.18664534,0.6252948,0.67994183,-0.30216533,0.7244262,0.92351264,0.21692598,0.71318555,-0.45579338,-1.22742,-0.053118736,0.41560143,0.91226965,0.55371726,0.21219921,-1.0489291,1.524508,0.39187688,0.18847317,0.48874217,LumP
TCGA-XF-AAMQ,0.008624767,0.011701092,0.3474527,-0.77148265,1.1375549,0.6070488,-0.2855991,0.4107261,-0.9727076,-0.19052917,-0.5566418,0.4975887,0.6696055,0.6200334,0.76230264,-1.4753404,0.68105435,-0.3702733,0.95576715,0.36721757,LumP
TCGA-XF-AAMZ,-0.05884971,0.06865971,0.40714762,-0.7736634,0.91289294,0.609012,-0.15680748,0.32318687,-0.8628095,-0.3686369,-0.5890453,0.59346175,0.7446651,0.36546612,0.67785454,-1.2688768,0.7564294,-0.42444658,0.5935354,0.34644789,LumP
TCGA-XF-AAN1,0.19799186,0.36084384,0.15678875,-0.38373676,1.0365188,0.7523993,0.11121112,0.677968,-0.58537334,-0.57583344,0.21492371,-0.117044374,0.3718816,1.0620803,0.30854914,-1.0245882,0.79510516,0.333335,0.9445468,0.55106765,LumP
TCGA-YC-A89H,-0.105445415,0.3991992,0.6292905,-0.6605237,0.8587136,1.0095507,0.16817342,0.5491172,-0.75939786,-1.0686795,-0.476852,0.569676,0.9510752,0.33593902,0.46411327,-1.0964074,1.3433144,-0.12056626,0.30637556,0.3451053,LumP
TCGA-YC-A8S6,0.46216127,1.2353153,1.1743817,-0.049489126,0.4629064,1.0044755,0.4695015,0.9690585,-0.12258011,-1.8947241,0.47654444,0.51219785,1.221798,0.6053525,-0.08687706,-1.3289865,2.0087156,0.8809092,0.008064979,0.5967392,LumP
TCGA-YF-AA3L,0.38144204,0.5949443,0.64878947,-0.5636799,1.0242563,0.65286714,-0.19842857,0.96216536,-0.8551152,-0.9936932,-0.060778566,0.54037404,0.8575364,0.8557602,0.48041102,-1.490108,1.2065308,0.15127385,0.6471673,0.5326232,LumP
TCGA-ZF-A9R1,0.35145417,0.5485051,0.54442143,-0.7373449,1.3616894,0.80015963,-0.34977946,1.0631487,-1.1279418,-0.74894404,-0.083334826,0.46275926,0.78516895,1.1967212,0.75836456,-1.7874497,1.1330764,0.14069971,1.0904187,0.6210881,LumP
TCGA-ZF-A9R2,0.41364542,0.6284634,0.6704432,-0.47694507,0.81882423,0.541328,-0.10888833,0.8840114,-0.6484875,-1.0707489,0.05307311,0.45172626,0.79780877,0.71835554,0.3368322,-1.3001639,1.1290407,0.19585499,0.52682316,0.48989868,LumP
TCGA-ZF-A9R3,-0.023915287,0.08667855,0.29161337,-0.6278878,0.8739896,0.5579904,-0.09890866,0.30748233,-0.7023388,-0.32428664,-0.35034436,0.36590278,0.63034856,0.43039024,0.51783204,-1.0705515,0.6931453,-0.26831672,0.62343615,0.36614355,LumP
TCGA-ZF-A9R4,-0.12755443,-0.11840938,0.34754163,-0.7345052,0.7888685,0.44122478,-0.22854924,0.13273054,-0.7440197,-0.122520976,-0.6144411,0.54934436,0.69570327,0.23214513,0.63325655,-1.1519334,0.591918,-0.5465847,0.5878388,0.2639956,LumP
TCGA-ZF-A9R5,0.033238776,0.33934873,0.6445779,-0.70224065,0.82371026,0.6049743,-0.09672214,0.45422325,-0.8939027,-0.7610971,-0.4799986,0.7645491,0.9741568,0.30766734,0.5547471,-1.3742166,0.9908467,-0.34329912,0.41612688,0.3651178,LumP
TCGA-ZF-A9R7,0.03815906,0.22835924,0.43047562,-0.67716926,1.0112646,0.6890706,-0.14047071,0.55143476,-0.9004905,-0.53346586,-0.4066882,0.46444654,0.71511984,0.6444657,0.6037779,-1.290978,0.91179776,-0.15481928,0.70792645,0.45029002,LumP
TCGA-ZF-A9RL,0.10917273,0.18329115,0.4690379,-0.6434498,0.77202696,0.41154188,-0.23555502,0.43008527,-0.7582009,-0.45137113,-0.3185698,0.55188555,0.7342903,0.47853306,0.53108704,-1.2500395,0.739014,-0.24748433,0.5726788,0.41045702,LumP
TCGA-ZF-A9RM,0.5056588,0.5292352,0.6042897,-0.38973236,0.5132663,0.21722627,-0.051174283,0.61230004,-0.26528478,-0.8437824,0.22405368,0.4187488,0.68575805,0.5353732,0.23924556,-1.1211925,0.7866502,0.15204489,0.4115518,0.4529162,LumP
TCGA-ZF-AA4U,0.12521307,0.11533435,0.3125922,-0.53234565,0.7654716,0.3766241,-0.17290771,0.35873562,-0.616094,-0.31817937,-0.18627489,0.3260244,0.50958544,0.53623474,0.39859125,-1.0793327,0.55651265,-0.17743072,0.6799754,0.3776601,LumP
TCGA-ZF-AA4X,0.08598161,0.3415873,0.54271346,-0.6933056,0.827701,0.5938487,-0.048161983,0.524053,-0.79571813,-0.75624096,-0.37419355,0.58244103,0.8165636,0.37830478,0.49406335,-1.2676647,0.9181579,-0.24077556,0.48033908,0.34756768,LumP
TCGA-ZF-AA51,0.28717768,0.45977634,0.50777143,-0.29910195,0.5551414,0.4674232,0.07595891,0.59340477,-0.32509884,-0.90163565,0.083714746,0.28981352,0.6470152,0.5070797,0.12824297,-0.9048726,1.0036862,0.2510428,0.29997566,0.45484412,LumP
TCGA-ZF-AA5N,-0.16109075,0.21208252,0.46916437,-0.7573145,0.86037654,0.8209026,0.061914437,0.40848324,-0.79862815,-0.71430105,-0.51076293,0.5061896,0.8173143,0.31913334,0.5014982,-1.0969464,1.0407856,-0.2851576,0.4554766,0.3325495,LumP
TCGA-2F-A9KW,-0.23515014,-0.28892297,0.12401888,-0.23839022,-0.02715382,0.017203439,0.3687389,-0.66718984,0.05155329,0.12700565,-0.35229632,0.24796464,0.53102165,-0.29671615,0.20959285,-0.26108456,0.17122763,-0.32368115,0.074190035,0.08240394,LumU
TCGA-4Z-AA7M,-0.15912704,-0.3369981,0.04056727,-0.20297398,0.1679563,0.024962429,0.23890063,-0.571421,-0.03349009,0.27918804,-0.26297346,0.12179972,0.49396682,-0.04769291,0.27867335,-0.37293968,0.08732462,-0.33121163,0.31364164,0.15662497,LumU
TCGA-4Z-AA7R,0.054803465,-0.13656975,0.41074,-0.39591408,0.27683443,-0.091052204,-0.014599159,-0.26959842,-0.21398428,0.01686655,-0.35113138,0.4799667,0.58034503,-0.007843435,0.4081829,-0.89911646,0.17146607,-0.42871732,0.4312294,0.22507374,LumU
TCGA-4Z-AA80,-0.32196462,-0.42254293,0.29031894,-0.32802075,0.122413605,-0.021700619,0.21780238,-0.7975211,-0.17906258,0.36466092,-0.64130956,0.5269274,0.75587,-0.26925206,0.5296999,-0.72257906,0.17824152,-0.5665297,0.30690542,0.11817682,LumU
TCGA-4Z-AA87,-0.23663862,0.13324971,0.4305551,-0.39018548,-0.07513839,0.30873904,0.4887341,-0.2365875,0.042251475,-0.6213597,-0.31279668,0.47087538,0.7994651,-0.4072946,0.067310944,-0.3487534,0.67749166,-0.19684973,-0.27314505,0.13462482,LumU
TCGA-5N-A9KI,0.324692,0.51070255,0.73540765,-0.20233168,-0.0011721179,0.06661369,0.3123486,0.17384434,0.23942186,-0.93077487,0.19116569,0.44976532,0.76137465,0.005444236,-0.02562926,-0.7138296,0.7571338,0.12813923,-0.06303782,0.35672233,LumU
TCGA-BT-A20W,-0.90512305,-0.3458978,0.026636573,-0.16897847,-0.5239319,0.13357356,1.1380044,-1.6106076,0.1002092,0.5521962,-0.51491946,0.4700817,1.1241784,-0.84868884,0.36572716,-0.22296545,0.097765304,-0.30501467,0.0010858113,-0.22750278,LumU
TCGA-CU-A0YR,0.0074263588,-0.019173503,0.38213706,-0.18812084,-0.2870387,-0.3172256,0.4981455,-0.66073334,0.3057698,-0.1305493,-0.05570698,0.40190917,0.6406296,-0.3633152,0.11612803,-0.4031916,0.09607209,-0.25182983,-0.044956516,0.14038393,LumU
TCGA-CU-A3QU,-0.39454538,-0.37033188,0.29628646,-0.32482636,0.19987884,0.002102878,0.34095454,-0.9802934,-0.27437606,0.51580226,-0.68732125,0.4759763,0.812471,-0.30492055,0.6212952,-0.8121049,0.03520292,-0.65516466,0.5054515,-0.000998348,LumU
TCGA-DK-A1A3,0.06215741,0.079433605,0.52213687,-0.27481282,-0.19679883,-0.22025709,0.35927886,-0.4054233,0.22610041,-0.40366453,-0.11823745,0.550672,0.7147508,-0.33287272,0.17059305,-0.55408496,0.2942599,-0.268104,-0.13188857,0.2399855,LumU
TCGA-DK-A1A6,-0.5986624,-0.6593414,0.0038465373,-0.4552633,0.59921926,0.4777078,0.16566667,-0.84573567,-0.6323773,0.6909572,-0.9735348,0.37727863,0.79049844,-0.10108112,0.8096131,-0.7909219,0.25098816,-0.73329115,0.6448621,0.06439089,LumU
TCGA-DK-A1AC,-0.66581994,-0.5633156,0.2412234,-0.4194944,0.22093587,0.2306892,0.3864286,-1.158242,-0.44332284,0.64810354,-1.0175267,0.65288603,1.0357013,-0.45006302,0.8042711,-0.8417319,0.24179712,-0.7644972,0.38257486,-0.02635011,LumU
TCGA-DK-A3IL,0.051108032,-0.077161595,0.22026479,-0.15126514,-0.11163384,-0.2593108,0.34317574,-0.45315924,0.2283913,-0.04473739,0.023447327,0.1150295,0.42424062,-0.17881761,0.042866662,-0.26500517,0.02970329,-0.14902373,0.13047673,0.1520954,LumU
TCGA-DK-A3IV,-0.16530967,0.1916046,0.33919346,0.09294829,-0.49934942,-0.015361574,0.7616085,-0.51215446,0.5143673,-0.45017976,0.251407,0.24939667,0.66623837,-0.34013578,-0.25698858,-0.14493144,0.45849133,0.21002889,-0.3074982,0.23494194,LumU
TCGA-DK-A6B1,0.16076542,0.04774344,0.36045384,-0.24219406,-0.059914604,-0.2856777,0.22051135,-0.2745674,0.16781615,-0.1882439,0.032148935,0.26459175,0.46297756,-0.1115561,0.08001199,-0.48565245,0.07944842,-0.19084704,0.16969594,0.18338545,LumU
TCGA-DK-AA6U,0.24002673,0.2099398,0.563964,-0.29922748,-0.1418019,-0.35109088,0.20049135,-0.20422888,0.2520004,-0.4122036,0.08509231,0.50300884,0.5853772,-0.16450948,0.096864566,-0.70242757,0.17445576,-0.23700097,0.07708108,0.25491074,LumU
TCGA-DK-AA75,-0.26186848,-0.26838917,0.30391955,-0.33412582,0.101742744,0.019922625,0.34073758,-0.78578794,-0.13017833,0.21416892,-0.5512926,0.48177695,0.76328087,-0.2982495,0.4658133,-0.6112669,0.17379868,-0.5325213,0.21114771,0.08300668,LumU
TCGA-E7-A4IJ,0.079374656,0.06685002,0.5256632,-0.27148378,-0.2020252,-0.29173675,0.3906226,-0.51609504,0.2647923,-0.30933195,-0.10702319,0.50122935,0.6707312,-0.34338158,0.16605267,-0.5338444,0.16120139,-0.3168058,-0.04068008,0.17729393,LumU
TCGA-E7-A6ME,-0.34670913,0.20826526,0.3433379,-0.023624942,-0.44802535,0.24842638,0.83669996,-0.5024493,0.4235949,-0.51032376,0.1043999,0.26835114,0.81455666,-0.42200214,-0.25210863,-0.06644228,0.6760297,0.21107543,-0.41563603,0.14568329,LumU
TCGA-E7-A85H,-0.12162691,-0.019643232,0.48055485,-0.3855015,-0.07146689,-0.016169924,0.41368762,-0.5441505,0.0318729,-0.25967026,-0.35788503,0.58121186,0.8098685,-0.39217266,0.26653835,-0.5543938,0.33014357,-0.44374743,-0.09460336,0.119133234,LumU
TCGA-FD-A3SJ,-0.012048349,0.1548524,0.4528899,-0.086416066,-0.48380196,-0.29328325,0.59045035,-0.5114311,0.54590786,-0.38242084,0.17756006,0.3640874,0.6540805,-0.43084386,-0.08883305,-0.32172877,0.2737428,-0.010887824,-0.23411855,0.23175134,LumU
TCGA-FD-A3SR,0.35558218,0.33375025,0.45899338,-0.21299855,0.22235632,0.12617232,0.173682,0.3021632,0.09170197,-0.6854744,0.23329905,0.19409563,0.5029932,0.26155213,-0.010511339,-0.5954979,0.64297366,0.17669576,0.13755386,0.3714748,LumU
TCGA-FD-A43N,0.049889915,0.16323604,0.34250426,-0.08582939,-0.04854326,0.09789953,0.3705927,-0.04890085,0.29506493,-0.47794223,0.15075362,0.018969826,0.34781915,0.01451005,-0.15317625,-0.27400807,0.47895804,0.15603867,0.044401582,0.34847003,LumU
TCGA-FD-A43P,-0.04600538,-0.05077342,0.19233932,-0.19630922,-0.05213377,-0.12762603,0.3444366,-0.49284858,0.17263734,-0.006613001,-0.054236956,0.14345607,0.47847658,-0.16276424,0.11974169,-0.28718135,0.06953347,-0.20572495,0.16155727,0.12348309,LumU
TCGA-FJ-A3Z7,-0.3431199,-0.2882661,-0.028035562,-0.004026532,-0.21233287,-0.058306634,0.7059727,-1.0405283,0.12106111,0.36307126,-0.22762644,0.15387931,0.65366924,-0.37451872,0.1756646,-0.16161229,-0.024701834,-0.16960445,0.15343449,-0.012048826,LumU
TCGA-FJ-A3ZF,-0.31389353,-0.56595147,0.088778526,-0.18528043,0.25441408,-0.04051334,0.21529512,-0.9141791,-0.19787848,0.67708427,-0.5533167,0.28981155,0.62158257,-0.09475267,0.5751668,-0.7127101,-0.06027448,-0.55465734,0.6347287,0.10157389,LumU
TCGA-G2-A3VY,-0.18370706,-0.29901955,0.33084407,-0.22763371,0.0057589933,-0.19305307,0.30450076,-0.79070604,-0.06850025,0.24463464,-0.46131274,0.53458816,0.71867657,-0.2808985,0.42952797,-0.6901436,0.09411738,-0.5088336,0.20775956,0.13802296,LumU
TCGA-G2-AA3F,-0.12381755,-0.16322517,0.086864315,-0.04494098,-0.13770662,-0.1975821,0.46293035,-0.67170846,0.15364847,0.13540332,-0.02830066,0.10630989,0.5084684,-0.23308535,0.07469118,-0.18201347,0.0077697188,-0.15970947,0.1180101,0.11040008,LumU
TCGA-GC-A4ZW,0.104703575,0.052542314,0.2929291,-0.1819877,-0.16388243,-0.23142421,0.31049472,-0.31517777,0.3053257,-0.25742465,0.09453737,0.1889968,0.43752885,-0.17784631,-0.008735955,-0.29531118,0.1513952,-0.10692412,0.0065712417,0.21592078,LumU
TCGA-GC-A6I3,0.082734756,0.030047953,0.38014892,-0.22871011,-0.050298586,-0.26752436,0.21338671,-0.35374218,0.09590996,-0.13850188,-0.03762456,0.3486548,0.55222106,-0.1287863,0.12857854,-0.52121305,0.121576086,-0.25007442,0.14174935,0.1753313,LumU
TCGA-GD-A76B,-0.19327997,0.119084254,0.39158788,-0.33133465,-0.117877916,0.24228063,0.5015105,-0.2761211,0.14205816,-0.5906881,-0.19969308,0.35516155,0.69471335,-0.3847238,-0.02335561,-0.21495041,0.5943918,-0.16635515,-0.2463535,0.09248397,LumU
TCGA-GU-A42P,-0.029630315,-0.08688003,0.20069018,-0.15778509,-0.09197493,-0.17851584,0.38770437,-0.56469125,0.18664455,-0.0040652677,-0.054476194,0.17657691,0.48625687,-0.21363312,0.099598825,-0.28500697,0.05352816,-0.2336041,0.10741346,0.13999842,LumU
TCGA-GU-AATP,0.08039445,-0.004084319,0.22034591,-0.12724179,-0.16792601,-0.22392762,0.40638122,-0.43375587,0.29380518,-0.1728063,0.114873074,0.14283477,0.45668277,-0.19315499,-0.009136274,-0.24055605,0.098348334,-0.107135415,0.024774414,0.18761718,LumU
TCGA-GV-A3JX,-0.51260436,-0.45173436,0.122154266,-0.28064996,0.124705836,0.13562292,0.39022142,-0.97523856,-0.23862356,0.50764805,-0.71636945,0.39284277,0.76880556,-0.3357023,0.52040637,-0.49197888,0.15278772,-0.5400252,0.28640497,-0.021486148,LumU
TCGA-GV-A3JZ,-0.56599957,-0.4530682,0.20414391,-0.3582818,0.2651469,0.23969418,0.35791594,-1.0179023,-0.3674709,0.52615315,-0.855106,0.47909135,0.89865506,-0.3622504,0.654534,-0.62497854,0.20657024,-0.6521712,0.35977706,-0.053442195,LumU
TCGA-GV-A3QH,-0.4046029,-0.2987313,0.30406374,-0.19140038,-0.19444627,-0.20362273,0.61888283,-1.1393895,0.046498187,0.40128952,-0.46560395,0.46953595,0.8280897,-0.50019073,0.42781582,-0.5387138,-0.017273203,-0.47871882,0.23892486,-0.004674107,LumU
TCGA-GV-A40G,-0.00035748072,-0.2335085,-0.0399705,-0.041855223,0.18460178,-0.16366194,0.28275913,-0.50148016,-0.0013379455,0.39752644,0.07454013,-0.05176623,0.49340323,0.15981504,0.1844567,-0.43540728,-0.13201618,-0.1605573,0.5554218,0.14431094,LumU
TCGA-H4-A2HO,-0.6800417,-0.37158006,0.12654771,-0.21956697,-0.34347644,0.037982356,0.82865095,-1.346401,0.036035642,0.43645996,-0.5175356,0.45266163,0.9884552,-0.6516863,0.40803543,-0.31872877,0.12601751,-0.38501862,0.08036714,-0.1274464,LumU
TCGA-HQ-A2OF,-0.06183773,-0.078467436,0.32135433,-0.44419158,0.24475586,0.13851339,0.2022622,-0.29171354,-0.18050417,-0.18242833,-0.3668658,0.39210397,0.564039,-0.15810204,0.2715036,-0.5859718,0.3062613,-0.44558397,0.1665098,0.14483702,LumU
TCGA-K4-A6MB,0.047478713,-0.027892277,0.46997908,-0.40112525,0.16292813,-0.044739015,0.12414258,-0.286605,-0.17563215,-0.24200019,-0.32550547,0.6506662,0.76906365,-0.1351102,0.3516247,-0.8045726,0.38098487,-0.4428655,0.050626826,0.24651405,LumU
TCGA-KQ-A41Q,0.23539416,0.14521338,0.39610606,-0.16952775,-0.01276125,-0.083510935,0.25828844,-0.07358605,0.20644885,-0.45880198,0.10581111,0.2542299,0.5079948,-0.056627028,-0.010059334,-0.4055842,0.39912426,-0.010225095,-0.04507653,0.26531827,LumU
TCGA-KQ-A41S,0.19374979,0.436755,0.63397217,0.057679072,-0.22211742,0.04565045,0.52172834,-0.06949196,0.44611812,-0.74426913,0.37314367,0.3040058,0.73507494,-0.044911295,-0.18900211,-0.50498164,0.7293106,0.3012394,-0.17813525,0.40464556,LumU
TCGA-LT-A5Z6,-0.06306641,0.42168355,0.77839875,-0.08979982,-0.40303907,0.07000515,0.65629196,-0.27282274,0.42912754,-0.87102777,0.056285173,0.61076504,1.0259163,-0.4324544,-0.11162852,-0.45907506,0.83825606,0.11043728,-0.49713537,0.2534144,LumU
TCGA-MV-A51V,-0.30380383,-0.12366277,0.032864705,-0.08799777,-0.26213545,0.02295765,0.61293906,-0.62495214,0.21200514,-0.013217263,-0.05933195,0.11267291,0.54819286,-0.34851792,-0.05517573,0.006373344,0.20885101,-0.03725957,-0.12563913,0.07256444,LumU
TCGA-UY-A78K,0.15291709,0.19760345,0.5860469,-0.38902795,-0.09148452,-0.13259833,0.31956193,-0.22120294,0.20736325,-0.55341405,-0.104792655,0.5479383,0.7282337,-0.30608448,0.11734615,-0.5915464,0.36993602,-0.28861344,-0.112078734,0.18673027,LumU
TCGA-UY-A9PD,0.24623396,0.3543619,0.6260473,-0.08904718,-0.24904364,-0.1483792,0.39692616,-0.11740331,0.46102998,-0.6591203,0.27967873,0.37804574,0.64916146,-0.16559622,-0.104396604,-0.51359206,0.5000744,0.09979326,-0.14978169,0.3423072,LumU
TCGA-UY-A9PE,0.038304962,-0.013876006,0.4310415,-0.20616959,-0.28321573,-0.35014424,0.3753783,-0.50896096,0.29145646,-0.18642558,-0.021053366,0.39670974,0.62547433,-0.28318918,0.10075103,-0.44724798,0.13488442,-0.20753396,-0.014198299,0.19814336,LumU
TCGA-XF-A8HC,0.1079011,-0.11686488,0.37104976,-0.28613424,0.05352372,-0.27810773,0.118034214,-0.36538482,0.021295153,0.045035988,-0.16049807,0.41449958,0.5573188,-0.04569477,0.28766486,-0.7050578,0.07007377,-0.28191325,0.31332952,0.22359467,LumU
TCGA-XF-A9T0,-0.16472557,0.6770298,0.81760526,0.33228904,-0.47335654,0.5702809,1.0825406,-0.24327347,0.59083676,-1.1340858,0.38124013,0.35811913,1.1754858,-0.1491068,-0.47149014,-0.3546766,1.3693862,0.7137943,-0.6092397,0.38130325,LumU
TCGA-XF-AAMG,0.20119324,0.2536744,0.60162294,-0.26503277,-0.22923413,-0.26555827,0.33988726,-0.20801899,0.32482827,-0.63026994,0.050323084,0.55311084,0.70059055,-0.31289965,0.036121473,-0.60532844,0.36533234,-0.1688594,-0.1550085,0.23588774,LumU
TCGA-XF-AAML,0.08542666,-0.041079342,0.2955847,-0.2039516,-0.05691485,-0.24947867,0.26169392,-0.3813607,0.1415379,-0.1072249,-0.033738874,0.2779727,0.5007651,-0.12915376,0.116674826,-0.43173575,0.10092242,-0.23013076,0.096812285,0.1988379,LumU
TCGA-XF-AAMX,0.16891368,0.09322937,0.33962443,-0.3028161,0.11403842,-0.026232336,0.1288161,-0.02459053,0.04217609,-0.376638,0.010392465,0.22080164,0.41768652,0.04413689,0.08552463,-0.49883032,0.31949437,-0.106716864,0.17327987,0.30805355,LumU
TCGA-ZF-AA4T,-0.075642854,0.33137107,0.5908541,-0.13751304,-0.31693187,0.11182375,0.6360204,-0.26295036,0.4371628,-0.71742415,0.061084896,0.36689627,0.7900383,-0.37793365,-0.11386278,-0.32571214,0.6877393,0.104909144,-0.3257984,0.21737327,LumU
TCGA-BL-A3JM,-0.6098441,-0.23384866,-0.248801,-0.24404788,0.6065543,0.94953924,0.63496125,0.0005046278,-0.24584451,-0.35802317,-0.25670508,-0.33547294,0.0070037544,0.5318135,-0.017330274,-0.08965321,0.63491637,0.17461407,0.5643457,0.24157733,NE-like
TCGA-BT-A2LA,-0.241722,-0.29972273,0.29335758,-0.72840536,1.0309467,0.49133432,-0.2992136,-0.0891543,-0.9555118,0.2919581,-0.8732196,0.5547387,0.7360595,0.31282035,0.92058754,-1.3166957,0.4317483,-0.642465,0.92201257,0.21416771,NE-like
TCGA-C4-A0EZ,-5.0887403,-0.3389063,-0.5089758,-1.0610778,-2.4217682,3.3193932,4.1566854,-3.9140947,-0.89036494,0.5610552,-2.0914788,2.2996125,5.370079,-3.1711547,0.9424163,-0.07573114,3.1535516,0.30654505,-2.5922835,-1.4561017,NE-like
TCGA-DK-AA6W,0.5067755,0.8184328,1.153187,-0.30375442,-0.23491263,-0.20199583,0.24887219,0.202052,0.3265718,-1.2491075,0.23742312,1.0657175,1.2275045,-0.19517848,0.104014724,-1.2444103,0.8657779,-0.033957116,-0.28329846,0.3298052,NE-like
TCGA-G2-A2EL,-0.5758111,-0.25819477,-0.71025896,0.67110485,-0.0070483834,0.060966473,1.2067094,-1.8294749,-0.12138632,1.3575606,0.27536938,-0.2827285,1.25032,0.044689357,0.20574597,-0.2895542,-0.6157988,-0.13320446,0.8712715,-0.2441506,NE-like
TCGA-XF-AAN7,0.37192464,1.3240716,-0.1294154,0.49140525,1.4949527,2.0511222,0.8619796,1.1725739,-0.53220165,-0.9858709,1.5748466,-0.75065273,1.0717459,2.4206114,-0.08768652,-1.2078674,1.8110828,1.9016494,1.1498196,0.79816604,NE-like
TCGA-4Z-AA7N,-0.43302834,-0.30369613,0.03172737,-0.24409793,-0.018079631,0.2202915,0.5133222,-0.7340419,-0.06737788,0.15876843,-0.4418126,0.2197362,0.63339007,-0.34395033,0.19480744,-0.12226972,0.24255502,-0.30179772,0.035520773,-0.006754607,Stroma-rich
TCGA-BT-A20Q,-0.24026524,-0.40174216,-0.06574924,-0.44715834,0.87239563,0.34872898,-0.10780278,-0.30336684,-0.6229656,0.6141851,-0.4821607,0.055008754,0.49070796,0.40621132,0.7171612,-0.9915826,0.062274963,-0.49406374,1.0980422,0.18089396,Stroma-rich
TCGA-BT-A20R,-0.3761072,-0.36519554,0.23237722,-0.32269308,0.17583156,0.09444532,0.2645691,-0.7016046,-0.23123404,0.26667398,-0.6497038,0.45104373,0.69502455,-0.31013638,0.44702318,-0.5731557,0.22491159,-0.5491238,0.2204299,0.06959132,Stroma-rich
TCGA-DK-A1AF,-0.69711506,-0.6326955,0.013795,-0.570264,0.97094256,0.6956185,0.122955024,-0.75520957,-0.94934607,0.72701776,-1.1893733,0.40567708,0.793699,-0.033042736,0.94570947,-1.0331066,0.2843941,-0.90817225,0.93388987,-0.035277918,Stroma-rich
TCGA-DK-A2HX,-0.25553063,-0.33175918,0.32858863,-0.29823434,0.22193894,-0.04088937,0.21275696,-0.76749825,-0.2828926,0.3529256,-0.57972986,0.49321848,0.75418603,-0.20718008,0.51364315,-0.80533725,0.0968755,-0.61170787,0.42916697,0.054821193,Stroma-rich
TCGA-DK-A3IQ,-0.10115714,0.08240971,0.04443463,-0.09027569,0.28898865,0.50869256,0.42721513,-0.074603595,-0.041940257,-0.38080317,0.097973056,-0.10901058,0.4725822,0.23676038,-0.056901276,-0.19261722,0.64195585,0.1412543,0.120292075,0.30675915,Stroma-rich
TCGA-DK-A3WY,-0.08754434,-0.049824297,0.18525264,-0.34143656,0.07628101,0.10861933,0.35928956,-0.34431207,0.025820695,-0.22963336,-0.17180619,0.24709313,0.5116776,-0.22415578,0.089594945,-0.2974805,0.29069075,-0.31359473,-0.010515982,0.14710464,Stroma-rich
TCGA-DK-AA6T,-0.19678736,-0.33679935,0.057841428,-0.14925474,0.14421608,0.020756204,0.30505228,-0.69665,-0.063450396,0.31384212,-0.36009565,0.18770015,0.53946954,-0.14888254,0.29921055,-0.37547413,0.056563735,-0.36288327,0.27455574,0.08733156,Stroma-rich
TCGA-E7-A6MD,-0.25647116,-0.20759761,0.28510112,-0.450881,0.16541609,0.1940991,0.21980566,-0.38412026,-0.1939283,-0.06438945,-0.49273923,0.46054375,0.7174217,-0.22427,0.36835772,-0.54981315,0.42464703,-0.44353026,0.062133424,0.183131,Stroma-rich
TCGA-FD-A3SL,-0.9293654,-0.51902986,-0.104002446,-0.22148992,-0.14073521,0.3525392,0.86110854,-1.4315615,-0.29002443,0.7051409,-0.72290075,0.3759719,1.0728092,-0.5701119,0.4843804,-0.29682478,0.1577135,-0.49296167,0.22464047,-0.19103597,Stroma-rich
TCGA-FD-A3SM,-0.32673934,-0.38103914,-0.17606659,-0.030082777,0.29281592,0.12433684,0.32277882,-0.78715837,-0.2844358,0.646043,-0.2765478,0.011792563,0.6177237,0.058221266,0.34516564,-0.39540586,-0.042815566,-0.35333726,0.5220819,0.058040068,Stroma-rich
TCGA-FD-A3SQ,-0.3141082,-0.0768532,-0.004110422,-0.45712915,0.570577,0.6130501,0.28078526,-0.026188992,-0.41716325,-0.22990754,-0.30295795,0.074496925,0.43921465,0.17662698,0.24040115,-0.42876658,0.52685404,-0.2583636,0.34680584,0.19869572,Stroma-rich
TCGA-FD-A43S,-0.4577033,-0.29923278,-0.27829972,-0.17761098,0.29613602,0.5369428,0.5879732,-0.59578705,-0.25739834,0.24414574,-0.37867406,-0.019829031,0.64410937,0.03190179,0.19612116,-0.09634591,0.31819248,-0.20166793,0.17247716,0.053435147,Stroma-rich
TCGA-FD-A43U,-0.72196484,-0.63604957,0.07077329,-0.9103109,1.5332059,1.1071818,-0.07768519,-0.33752537,-1.3136468,0.6939347,-1.5208055,0.4472822,0.81690115,0.34258956,1.3254418,-1.4409946,0.53956383,-0.8660363,1.3780322,0.028149799,Stroma-rich
TCGA-FD-A5BS,-0.6140765,-0.13277607,-0.051723298,-0.14802645,-0.22319356,0.44098067,0.82696164,-0.6963203,0.02935505,-0.095949456,-0.2564382,0.1523872,0.78598773,-0.3858835,-0.063241325,0.11162417,0.49853864,0.015820228,-0.26161286,-0.07723676,Stroma-rich
TCGA-FD-A5BX,-1.0046084,0.4578659,0.39322233,0.2357536,-0.6811167,1.1311046,1.5812707,-0.6463157,0.28103894,-1.0092309,0.047801316,0.47828156,1.5688002,-0.53045213,-0.6074226,0.16596556,1.6243203,0.7589728,-1.0246862,-0.094864294,Stroma-rich
TCGA-FD-A5BZ,-0.21790978,-0.34311923,-0.30418587,-0.11457132,0.5563637,0.2555307,0.24531172,-0.50804055,-0.3365368,0.62275356,-0.11675939,-0.2120841,0.47725952,0.34917834,0.36341694,-0.50705755,-0.07147321,-0.27536935,0.82485914,0.13371706,Stroma-rich
TCGA-FD-A5C0,-0.12749861,-0.07547086,0.0023965016,-0.17577448,0.22040243,0.27724257,0.3163284,-0.17781699,-0.035412878,-0.19121338,-0.08174893,-0.041831393,0.36909717,0.06731835,0.003599599,-0.12715675,0.35663652,-0.09746653,0.12280502,0.18886048,Stroma-rich
TCGA-FD-A6TB,-0.48258165,-0.005814329,0.09409478,0.015407369,-0.24756017,0.43104222,0.77629304,-0.42588028,0.16739953,-0.39554822,-0.026395766,0.093626276,0.6553819,-0.25361136,-0.33140862,0.14731921,0.6768351,0.18734813,-0.35410324,0.047697365,Stroma-rich
TCGA-FD-A6TC,-0.28349513,-0.27127796,-0.0012919009,-0.20001957,0.101459146,0.15923773,0.34566382,-0.59485656,-0.063699305,0.14901678,-0.29877332,0.1336906,0.5250784,-0.19238712,0.15575632,-0.19349143,0.19102396,-0.3140645,0.12263902,0.055746317,Stroma-rich
TCGA-FD-A6TF,-0.4781303,-0.65586346,-0.16124082,-0.32228053,0.8179568,0.4035116,0.06381262,-0.6569617,-0.6701008,0.9131993,-0.73212737,0.08633281,0.58280146,0.29740405,0.7856493,-0.9159525,-0.0031152219,-0.6305675,1.115986,0.0968658,Stroma-rich
TCGA-FD-A6TG,-0.83617204,-0.5101644,0.37243167,-0.65349764,0.4346891,0.6042115,0.33675724,-1.0011586,-0.77521265,0.41475004,-1.3638264,0.8868776,1.2950766,-0.53978866,0.92883444,-0.95384014,0.59481466,-0.917515,0.21204844,-0.1162947,Stroma-rich
TCGA-FJ-A871,-0.6218762,-0.42737687,-0.20551835,-0.17076245,0.1385246,0.37131676,0.5743743,-0.9764874,-0.26097238,0.5670335,-0.53322923,0.14477514,0.7802815,-0.24364655,0.34291616,-0.23574416,0.14521594,-0.41003555,0.27459276,-0.07202338,Stroma-rich
TCGA-GC-A3OO,-0.32992464,-0.30527323,0.038420092,-0.34144872,0.27096987,0.3438676,0.23818876,-0.47693062,-0.22919047,0.11977741,-0.4722513,0.19673951,0.5551866,-0.14018826,0.29964995,-0.32842383,0.3294624,-0.40710247,0.16126858,0.11201567,Stroma-rich
TCGA-GU-AATO,-0.61200964,-0.38416743,0.14158209,-0.5320846,0.45309713,0.6361791,0.26319277,-0.5762223,-0.5503092,0.14554508,-0.92516065,0.48765522,0.8454974,-0.2781696,0.5747565,-0.5435756,0.54420424,-0.671565,0.19101815,-0.011654109,Stroma-rich
TCGA-GV-A3QG,-0.35963306,-0.4018517,-0.08387235,-0.15357652,0.25419307,0.12633115,0.28533074,-0.71545327,-0.19189447,0.5275293,-0.34128436,0.05348693,0.53161037,-0.03026959,0.36658186,-0.40613163,0.007318586,-0.39232528,0.49651358,0.085394934,Stroma-rich
TCGA-K4-A3WS,-0.69644076,-0.16522633,-0.3635587,0.11884612,-0.27276537,0.26137745,1.0693568,-1.1007781,0.0018889084,0.41406274,-0.0542236,-0.07193749,0.82268316,-0.3382965,-0.06311058,0.18134499,0.041819125,0.046348877,0.029263362,-0.16059203,Stroma-rich
TCGA-K4-A83P,-0.15704015,-0.18464944,-0.04345229,-0.22859412,0.23579678,0.12737262,0.24049641,-0.41842014,-0.12822267,0.20339985,-0.109670736,0.038841024,0.48530608,0.064309135,0.21696061,-0.37445274,0.11906229,-0.26335338,0.3488455,0.15715016,Stroma-rich
TCGA-K4-AAQO,-0.5112908,-0.55156815,0.10496214,-0.29576874,0.30666274,0.1738801,0.27061674,-0.9709029,-0.37163398,0.6778164,-0.75995153,0.3502078,0.76712847,-0.19566286,0.629302,-0.6906425,0.07782774,-0.64243305,0.56243825,0.006205991,Stroma-rich
TCGA-R3-A69X,-0.1811215,0.056760013,0.30092648,-0.20360191,-0.037712157,0.2827816,0.42970186,-0.20131448,0.12291391,-0.50019157,-0.123289794,0.18328081,0.57930183,-0.20029153,-0.10347843,-0.088274166,0.627496,-0.017773844,-0.21970466,0.15215515,Stroma-rich
TCGA-SY-A9G0,-0.38016477,-0.3123837,-0.18535687,-0.18895909,0.31569004,0.41528946,0.43953636,-0.56352633,-0.25193638,0.27106988,-0.36319113,-0.018827382,0.58858895,-0.0176952,0.22743672,-0.18760471,0.2335251,-0.3005797,0.2474201,0.052678913,Stroma-rich
TCGA-UY-A8OD,-0.41828403,0.06623554,0.44123378,-0.42148286,-0.008578986,0.6553367,0.6200068,-0.30096784,-0.12389037,-0.695636,-0.5360717,0.63428086,1.0988917,-0.48643333,0.08389452,-0.2783699,1.0364945,-0.17127882,-0.5298126,-0.011022434,Stroma-rich
TCGA-XF-A9SI,-0.70563257,-0.5766634,-0.18407455,-0.43918952,0.88534796,0.6863561,0.27241856,-0.7782661,-0.76944983,0.80337584,-0.91797405,0.09285343,0.65423685,0.032577716,0.7985126,-0.7728426,0.12744516,-0.77168256,0.98224354,-0.032529518,Stroma-rich
TCGA-XF-A9SK,-0.05824667,-0.062575296,0.27356997,-0.28656843,0.09679288,0.096827194,0.23135906,-0.2548806,-0.09316257,-0.28385958,-0.24255824,0.33443058,0.5677254,-0.19024695,0.09816679,-0.34776464,0.41314802,-0.26671335,-0.08017373,0.16299613,Stroma-rich
TCGA-XF-A9SL,-0.3250076,0.16178639,0.20614485,0.06303531,-0.23606613,0.43462086,0.76491237,-0.36888033,0.24750207,-0.49064326,0.12429192,0.07125132,0.7477324,-0.1965744,-0.31546307,0.027349763,0.754667,0.2851646,-0.3331034,0.14300823,Stroma-rich
TCGA-XF-A9SP,-0.5084665,-0.34591028,-0.3022189,-0.2682309,0.638949,0.7077924,0.44287717,-0.5506872,-0.44851214,0.36290234,-0.46099493,-0.101086274,0.54312223,0.21763092,0.41925976,-0.4126086,0.25460866,-0.38589907,0.6469344,0.09264392,Stroma-rich
TCGA-XF-A9SU,-0.2876976,-0.159624,0.11583857,-0.25424445,-0.09238188,0.11994593,0.4611309,-0.53791684,0.03631696,-0.081965014,-0.2655453,0.22987328,0.5734472,-0.3360973,0.059688434,-0.1026951,0.30100572,-0.23269433,-0.11557472,0.053397372,Stroma-rich
TCGA-XF-A9SW,-0.18883803,-0.32856408,0.198111,-0.37509075,0.46430218,0.17693578,-0.056449994,-0.31829935,-0.44731277,0.21234058,-0.5699639,0.396796,0.60850096,0.0072483346,0.468931,-0.7443216,0.3029863,-0.48696303,0.42010936,0.16407692,Stroma-rich
TCGA-XF-AAMJ,-0.60083956,-0.11403283,-0.23562887,0.1083816,-0.12973891,0.5029795,0.8851092,-0.60401595,-0.041417867,-0.07101852,-0.020547748,-0.11272101,0.6014451,-0.16049157,-0.2866804,0.23695606,0.432103,0.18076116,-0.13307971,-0.04547116,Stroma-rich
TCGA-XF-AAMR,-0.2876898,-0.18582506,0.2097935,-0.4661151,0.1957617,0.34744877,0.2580402,-0.36933345,-0.21371269,-0.15924743,-0.5322497,0.423361,0.6857091,-0.26562834,0.27406174,-0.37385023,0.5052564,-0.44211045,-0.084515326,0.115323454,Stroma-rich
TCGA-XF-AAN8,0.100042254,0.14534877,0.5018006,-0.54184663,0.46286693,0.22823352,-0.038973883,0.16493651,-0.46818888,-0.48627937,-0.32856706,0.5924671,0.75945604,0.0715576,0.3175921,-0.9204027,0.6089746,-0.35242414,0.18964237,0.23548688,Stroma-rich
TCGA-ZF-A9R9,-0.04965983,-0.14554298,-0.032303613,-0.22593811,0.5271127,0.36074182,0.085246496,-0.050975874,-0.20969424,0.017270893,-0.08265616,-0.090865694,0.32197115,0.4187554,0.21009734,-0.38312778,0.32693022,-0.025050752,0.5168272,0.26468074,Stroma-rich
TCGA-ZF-A9RC,-0.22646496,-0.19162318,0.13363037,-0.21529183,-0.06905402,0.02622148,0.37646025,-0.54185295,0.057975035,-0.034971997,-0.24711287,0.20883356,0.5302347,-0.2801123,0.1304391,-0.17098096,0.23513967,-0.23453972,-0.00574793,0.08661178,Stroma-rich
TCGA-ZF-AA52,0.13188389,0.2496465,0.4809147,-0.018915236,-0.21776819,-0.033002026,0.46604648,-0.17650744,0.4354563,-0.54448235,0.23357293,0.19459848,0.5745295,-0.12548518,-0.14703943,-0.32964084,0.5281515,0.15118521,-0.16533312,0.33593923,Stroma-rich
TCGA-ZF-AA5P,-0.3691915,0.20491146,0.2743522,0.099544674,-0.30831084,0.45863134,0.8353828,-0.38410977,0.28532934,-0.60117775,0.13191414,0.1416178,0.8007717,-0.21569364,-0.33847415,0.003747425,0.8485207,0.32500237,-0.39085057,0.14197922,Stroma-rich
